digraph Tree {
node [shape=box, style="filled", color="black"] ;
0 [label="spore_print_color <= 2.5\ngini = 0.5\nsamples = 6499\nvalue = [3163, 3336]", fillcolor="#399de50d"] ;
1 [label="gill_size <= 0.5\ngini = 0.291\nsamples = 3139\nvalue = [554, 2585]", fillcolor="#399de5c8"] ;
0 -> 1 [labeldistance=2.5, labelangle=45, headlabel="True"] ;
2 [label="gill_color <= 0.5\ngini = 0.141\nsamples = 2664\nvalue = [204, 2460]", fillcolor="#399de5ea"] ;
1 -> 2 ;
3 [label="population <= 2.5\ngini = 0.087\nsamples = 264\nvalue = [12, 252]", fillcolor="#399de5f3"] ;
2 -> 3 ;
4 [label="habitat <= 1.0\ngini = 0.15\nsamples = 135\nvalue = [11, 124]", fillcolor="#399de5e8"] ;
3 -> 4 ;
5 [label="stalk_surface_above_ring <= 1.5\ngini = 0.107\nsamples = 106\nvalue = [6, 100]", fillcolor="#399de5f0"] ;
4 -> 5 ;
6 [label="cap_color <= 1.5\ngini = 0.046\nsamples = 42\nvalue = [1, 41]", fillcolor="#399de5f9"] ;
5 -> 6 ;
7 [label="stalk_surface_below_ring <= 1.5\ngini = 0.124\nsamples = 15\nvalue = [1, 14]", fillcolor="#399de5ed"] ;
6 -> 7 ;
8 [label="cap_surface <= 1.5\ngini = 0.245\nsamples = 7\nvalue = [1, 6]", fillcolor="#399de5d4"] ;
7 -> 8 ;
9 [label="gini = 0.0\nsamples = 4\nvalue = [0, 4]", fillcolor="#399de5ff"] ;
8 -> 9 ;
10 [label="spore_print_color <= 0.5\ngini = 0.444\nsamples = 3\nvalue = [1, 2]", fillcolor="#399de57f"] ;
8 -> 10 ;
11 [label="gini = 0.0\nsamples = 1\nvalue = [1, 0]", fillcolor="#e58139ff"] ;
10 -> 11 ;
12 [label="gini = 0.0\nsamples = 2\nvalue = [0, 2]", fillcolor="#399de5ff"] ;
10 -> 12 ;
13 [label="gini = 0.0\nsamples = 8\nvalue = [0, 8]", fillcolor="#399de5ff"] ;
7 -> 13 ;
14 [label="gini = 0.0\nsamples = 27\nvalue = [0, 27]", fillcolor="#399de5ff"] ;
6 -> 14 ;
15 [label="cap_surface <= 1.0\ngini = 0.144\nsamples = 64\nvalue = [5, 59]", fillcolor="#399de5e9"] ;
5 -> 15 ;
16 [label="cap_shape <= 2.5\ngini = 0.266\nsamples = 19\nvalue = [3, 16]", fillcolor="#399de5cf"] ;
15 -> 16 ;
17 [label="gini = 0.0\nsamples = 9\nvalue = [0, 9]", fillcolor="#399de5ff"] ;
16 -> 17 ;
18 [label="cap_color <= 5.5\ngini = 0.42\nsamples = 10\nvalue = [3, 7]", fillcolor="#399de592"] ;
16 -> 18 ;
19 [label="cap_color <= 1.5\ngini = 0.278\nsamples = 6\nvalue = [1, 5]", fillcolor="#399de5cc"] ;
18 -> 19 ;
20 [label="spore_print_color <= 0.5\ngini = 0.444\nsamples = 3\nvalue = [1, 2]", fillcolor="#399de57f"] ;
19 -> 20 ;
21 [label="stalk_surface_below_ring <= 1.5\ngini = 0.5\nsamples = 2\nvalue = [1, 1]", fillcolor="#e5813900"] ;
20 -> 21 ;
22 [label="gini = 0.0\nsamples = 1\nvalue = [1, 0]", fillcolor="#e58139ff"] ;
21 -> 22 ;
23 [label="gini = 0.0\nsamples = 1\nvalue = [0, 1]", fillcolor="#399de5ff"] ;
21 -> 23 ;
24 [label="gini = 0.0\nsamples = 1\nvalue = [0, 1]", fillcolor="#399de5ff"] ;
20 -> 24 ;
25 [label="gini = 0.0\nsamples = 3\nvalue = [0, 3]", fillcolor="#399de5ff"] ;
19 -> 25 ;
26 [label="spore_print_color <= 0.5\ngini = 0.5\nsamples = 4\nvalue = [2, 2]", fillcolor="#e5813900"] ;
18 -> 26 ;
27 [label="gini = 0.0\nsamples = 2\nvalue = [0, 2]", fillcolor="#399de5ff"] ;
26 -> 27 ;
28 [label="gini = 0.0\nsamples = 2\nvalue = [2, 0]", fillcolor="#e58139ff"] ;
26 -> 28 ;
29 [label="spore_print_color <= 0.5\ngini = 0.085\nsamples = 45\nvalue = [2, 43]", fillcolor="#399de5f3"] ;
15 -> 29 ;
30 [label="gini = 0.0\nsamples = 23\nvalue = [0, 23]", fillcolor="#399de5ff"] ;
29 -> 30 ;
31 [label="cap_shape <= 1.0\ngini = 0.165\nsamples = 22\nvalue = [2, 20]", fillcolor="#399de5e6"] ;
29 -> 31 ;
32 [label="cap_color <= 8.5\ngini = 0.32\nsamples = 5\nvalue = [1, 4]", fillcolor="#399de5bf"] ;
31 -> 32 ;
33 [label="odor <= 0.5\ngini = 0.5\nsamples = 2\nvalue = [1, 1]", fillcolor="#e5813900"] ;
32 -> 33 ;
34 [label="gini = 0.0\nsamples = 1\nvalue = [1, 0]", fillcolor="#e58139ff"] ;
33 -> 34 ;
35 [label="gini = 0.0\nsamples = 1\nvalue = [0, 1]", fillcolor="#399de5ff"] ;
33 -> 35 ;
36 [label="gini = 0.0\nsamples = 3\nvalue = [0, 3]", fillcolor="#399de5ff"] ;
32 -> 36 ;
37 [label="cap_color <= 5.5\ngini = 0.111\nsamples = 17\nvalue = [1, 16]", fillcolor="#399de5ef"] ;
31 -> 37 ;
38 [label="stalk_surface_below_ring <= 1.5\ngini = 0.219\nsamples = 8\nvalue = [1, 7]", fillcolor="#399de5db"] ;
37 -> 38 ;
39 [label="gini = 0.0\nsamples = 4\nvalue = [0, 4]", fillcolor="#399de5ff"] ;
38 -> 39 ;
40 [label="cap_color <= 1.5\ngini = 0.375\nsamples = 4\nvalue = [1, 3]", fillcolor="#399de5aa"] ;
38 -> 40 ;
41 [label="gini = 0.0\nsamples = 2\nvalue = [0, 2]", fillcolor="#399de5ff"] ;
40 -> 41 ;
42 [label="cap_shape <= 2.5\ngini = 0.5\nsamples = 2\nvalue = [1, 1]", fillcolor="#e5813900"] ;
40 -> 42 ;
43 [label="gini = 0.0\nsamples = 1\nvalue = [1, 0]", fillcolor="#e58139ff"] ;
42 -> 43 ;
44 [label="gini = 0.0\nsamples = 1\nvalue = [0, 1]", fillcolor="#399de5ff"] ;
42 -> 44 ;
45 [label="gini = 0.0\nsamples = 9\nvalue = [0, 9]", fillcolor="#399de5ff"] ;
37 -> 45 ;
46 [label="spore_print_color <= 0.5\ngini = 0.285\nsamples = 29\nvalue = [5, 24]", fillcolor="#399de5ca"] ;
4 -> 46 ;
47 [label="odor <= 0.5\ngini = 0.375\nsamples = 16\nvalue = [4, 12]", fillcolor="#399de5aa"] ;
46 -> 47 ;
48 [label="cap_surface <= 2.5\ngini = 0.219\nsamples = 8\nvalue = [1, 7]", fillcolor="#399de5db"] ;
47 -> 48 ;
49 [label="gini = 0.0\nsamples = 4\nvalue = [0, 4]", fillcolor="#399de5ff"] ;
48 -> 49 ;
50 [label="cap_shape <= 1.0\ngini = 0.375\nsamples = 4\nvalue = [1, 3]", fillcolor="#399de5aa"] ;
48 -> 50 ;
51 [label="cap_color <= 8.5\ngini = 0.5\nsamples = 2\nvalue = [1, 1]", fillcolor="#e5813900"] ;
50 -> 51 ;
52 [label="gini = 0.0\nsamples = 1\nvalue = [1, 0]", fillcolor="#e58139ff"] ;
51 -> 52 ;
53 [label="gini = 0.0\nsamples = 1\nvalue = [0, 1]", fillcolor="#399de5ff"] ;
51 -> 53 ;
54 [label="gini = 0.0\nsamples = 2\nvalue = [0, 2]", fillcolor="#399de5ff"] ;
50 -> 54 ;
55 [label="cap_color <= 8.5\ngini = 0.469\nsamples = 8\nvalue = [3, 5]", fillcolor="#399de566"] ;
47 -> 55 ;
56 [label="cap_surface <= 2.5\ngini = 0.375\nsamples = 4\nvalue = [1, 3]", fillcolor="#399de5aa"] ;
55 -> 56 ;
57 [label="cap_shape <= 1.0\ngini = 0.5\nsamples = 2\nvalue = [1, 1]", fillcolor="#e5813900"] ;
56 -> 57 ;
58 [label="gini = 0.0\nsamples = 1\nvalue = [0, 1]", fillcolor="#399de5ff"] ;
57 -> 58 ;
59 [label="gini = 0.0\nsamples = 1\nvalue = [1, 0]", fillcolor="#e58139ff"] ;
57 -> 59 ;
60 [label="gini = 0.0\nsamples = 2\nvalue = [0, 2]", fillcolor="#399de5ff"] ;
56 -> 60 ;
61 [label="cap_shape <= 1.0\ngini = 0.5\nsamples = 4\nvalue = [2, 2]", fillcolor="#e5813900"] ;
55 -> 61 ;
62 [label="cap_surface <= 2.5\ngini = 0.5\nsamples = 2\nvalue = [1, 1]", fillcolor="#e5813900"] ;
61 -> 62 ;
63 [label="gini = 0.0\nsamples = 1\nvalue = [0, 1]", fillcolor="#399de5ff"] ;
62 -> 63 ;
64 [label="gini = 0.0\nsamples = 1\nvalue = [1, 0]", fillcolor="#e58139ff"] ;
62 -> 64 ;
65 [label="cap_surface <= 2.5\ngini = 0.5\nsamples = 2\nvalue = [1, 1]", fillcolor="#e5813900"] ;
61 -> 65 ;
66 [label="gini = 0.0\nsamples = 1\nvalue = [1, 0]", fillcolor="#e58139ff"] ;
65 -> 66 ;
67 [label="gini = 0.0\nsamples = 1\nvalue = [0, 1]", fillcolor="#399de5ff"] ;
65 -> 67 ;
68 [label="cap_surface <= 2.5\ngini = 0.142\nsamples = 13\nvalue = [1, 12]", fillcolor="#399de5ea"] ;
46 -> 68 ;
69 [label="cap_shape <= 1.0\ngini = 0.32\nsamples = 5\nvalue = [1, 4]", fillcolor="#399de5bf"] ;
68 -> 69 ;
70 [label="gini = 0.0\nsamples = 3\nvalue = [0, 3]", fillcolor="#399de5ff"] ;
69 -> 70 ;
71 [label="odor <= 0.5\ngini = 0.5\nsamples = 2\nvalue = [1, 1]", fillcolor="#e5813900"] ;
69 -> 71 ;
72 [label="gini = 0.0\nsamples = 1\nvalue = [1, 0]", fillcolor="#e58139ff"] ;
71 -> 72 ;
73 [label="gini = 0.0\nsamples = 1\nvalue = [0, 1]", fillcolor="#399de5ff"] ;
71 -> 73 ;
74 [label="gini = 0.0\nsamples = 8\nvalue = [0, 8]", fillcolor="#399de5ff"] ;
68 -> 74 ;
75 [label="odor <= 0.5\ngini = 0.015\nsamples = 129\nvalue = [1, 128]", fillcolor="#399de5fd"] ;
3 -> 75 ;
76 [label="cap_color <= 8.5\ngini = 0.074\nsamples = 26\nvalue = [1, 25]", fillcolor="#399de5f5"] ;
75 -> 76 ;
77 [label="spore_print_color <= 0.5\ngini = 0.153\nsamples = 12\nvalue = [1, 11]", fillcolor="#399de5e8"] ;
76 -> 77 ;
78 [label="gini = 0.0\nsamples = 7\nvalue = [0, 7]", fillcolor="#399de5ff"] ;
77 -> 78 ;
79 [label="cap_shape <= 1.0\ngini = 0.32\nsamples = 5\nvalue = [1, 4]", fillcolor="#399de5bf"] ;
77 -> 79 ;
80 [label="cap_surface <= 2.5\ngini = 0.5\nsamples = 2\nvalue = [1, 1]", fillcolor="#e5813900"] ;
79 -> 80 ;
81 [label="gini = 0.0\nsamples = 1\nvalue = [0, 1]", fillcolor="#399de5ff"] ;
80 -> 81 ;
82 [label="gini = 0.0\nsamples = 1\nvalue = [1, 0]", fillcolor="#e58139ff"] ;
80 -> 82 ;
83 [label="gini = 0.0\nsamples = 3\nvalue = [0, 3]", fillcolor="#399de5ff"] ;
79 -> 83 ;
84 [label="gini = 0.0\nsamples = 14\nvalue = [0, 14]", fillcolor="#399de5ff"] ;
76 -> 84 ;
85 [label="gini = 0.0\nsamples = 103\nvalue = [0, 103]", fillcolor="#399de5ff"] ;
75 -> 85 ;
86 [label="gill_color <= 9.0\ngini = 0.147\nsamples = 2400\nvalue = [192, 2208]", fillcolor="#399de5e9"] ;
2 -> 86 ;
87 [label="gill_color <= 7.5\ngini = 0.156\nsamples = 1884\nvalue = [161, 1723]", fillcolor="#399de5e7"] ;
86 -> 87 ;
88 [label="spore_print_color <= 1.5\ngini = 0.146\nsamples = 1546\nvalue = [123, 1423]", fillcolor="#399de5e9"] ;
87 -> 88 ;
89 [label="cap_surface <= 2.5\ngini = 0.149\nsamples = 1520\nvalue = [123, 1397]", fillcolor="#399de5e9"] ;
88 -> 89 ;
90 [label="cap_color <= 1.5\ngini = 0.136\nsamples = 1155\nvalue = [85, 1070]", fillcolor="#399de5eb"] ;
89 -> 90 ;
91 [label="stalk_color_below_ring <= 4.0\ngini = 0.165\nsamples = 363\nvalue = [33, 330]", fillcolor="#399de5e6"] ;
90 -> 91 ;
92 [label="cap_shape <= 2.5\ngini = 0.079\nsamples = 73\nvalue = [3, 70]", fillcolor="#399de5f4"] ;
91 -> 92 ;
93 [label="gini = 0.0\nsamples = 32\nvalue = [0, 32]", fillcolor="#399de5ff"] ;
92 -> 93 ;
94 [label="population <= 4.5\ngini = 0.136\nsamples = 41\nvalue = [3, 38]", fillcolor="#399de5eb"] ;
92 -> 94 ;
95 [label="cap_surface <= 1.0\ngini = 0.188\nsamples = 19\nvalue = [2, 17]", fillcolor="#399de5e1"] ;
94 -> 95 ;
96 [label="gini = 0.0\nsamples = 8\nvalue = [0, 8]", fillcolor="#399de5ff"] ;
95 -> 96 ;
97 [label="stalk_color_above_ring <= 6.0\ngini = 0.298\nsamples = 11\nvalue = [2, 9]", fillcolor="#399de5c6"] ;
95 -> 97 ;
98 [label="spore_print_color <= 0.5\ngini = 0.408\nsamples = 7\nvalue = [2, 5]", fillcolor="#399de599"] ;
97 -> 98 ;
99 [label="stalk_color_above_ring <= 4.0\ngini = 0.375\nsamples = 4\nvalue = [1, 3]", fillcolor="#399de5aa"] ;
98 -> 99 ;
100 [label="gill_color <= 4.0\ngini = 0.5\nsamples = 2\nvalue = [1, 1]", fillcolor="#e5813900"] ;
99 -> 100 ;
101 [label="gini = 0.0\nsamples = 1\nvalue = [1, 0]", fillcolor="#e58139ff"] ;
100 -> 101 ;
102 [label="gini = 0.0\nsamples = 1\nvalue = [0, 1]", fillcolor="#399de5ff"] ;
100 -> 102 ;
103 [label="gini = 0.0\nsamples = 2\nvalue = [0, 2]", fillcolor="#399de5ff"] ;
99 -> 103 ;
104 [label="gill_color <= 4.0\ngini = 0.444\nsamples = 3\nvalue = [1, 2]", fillcolor="#399de57f"] ;
98 -> 104 ;
105 [label="gini = 0.0\nsamples = 1\nvalue = [0, 1]", fillcolor="#399de5ff"] ;
104 -> 105 ;
106 [label="stalk_color_above_ring <= 4.0\ngini = 0.5\nsamples = 2\nvalue = [1, 1]", fillcolor="#e5813900"] ;
104 -> 106 ;
107 [label="gini = 0.0\nsamples = 1\nvalue = [0, 1]", fillcolor="#399de5ff"] ;
106 -> 107 ;
108 [label="gini = 0.0\nsamples = 1\nvalue = [1, 0]", fillcolor="#e58139ff"] ;
106 -> 108 ;
109 [label="gini = 0.0\nsamples = 4\nvalue = [0, 4]", fillcolor="#399de5ff"] ;
97 -> 109 ;
110 [label="stalk_color_above_ring <= 6.0\ngini = 0.087\nsamples = 22\nvalue = [1, 21]", fillcolor="#399de5f3"] ;
94 -> 110 ;
111 [label="gini = 0.0\nsamples = 14\nvalue = [0, 14]", fillcolor="#399de5ff"] ;
110 -> 111 ;
112 [label="gill_color <= 4.0\ngini = 0.219\nsamples = 8\nvalue = [1, 7]", fillcolor="#399de5db"] ;
110 -> 112 ;
113 [label="cap_surface <= 1.0\ngini = 0.375\nsamples = 4\nvalue = [1, 3]", fillcolor="#399de5aa"] ;
112 -> 113 ;
114 [label="spore_print_color <= 0.5\ngini = 0.5\nsamples = 2\nvalue = [1, 1]", fillcolor="#e5813900"] ;
113 -> 114 ;
115 [label="gini = 0.0\nsamples = 1\nvalue = [0, 1]", fillcolor="#399de5ff"] ;
114 -> 115 ;
116 [label="gini = 0.0\nsamples = 1\nvalue = [1, 0]", fillcolor="#e58139ff"] ;
114 -> 116 ;
117 [label="gini = 0.0\nsamples = 2\nvalue = [0, 2]", fillcolor="#399de5ff"] ;
113 -> 117 ;
118 [label="gini = 0.0\nsamples = 4\nvalue = [0, 4]", fillcolor="#399de5ff"] ;
112 -> 118 ;
119 [label="stalk_surface_below_ring <= 2.0\ngini = 0.185\nsamples = 290\nvalue = [30, 260]", fillcolor="#399de5e2"] ;
91 -> 119 ;
120 [label="spore_print_color <= 0.5\ngini = 0.102\nsamples = 93\nvalue = [5, 88]", fillcolor="#399de5f1"] ;
119 -> 120 ;
121 [label="population <= 4.0\ngini = 0.043\nsamples = 45\nvalue = [1, 44]", fillcolor="#399de5f9"] ;
120 -> 121 ;
122 [label="gini = 0.0\nsamples = 34\nvalue = [0, 34]", fillcolor="#399de5ff"] ;
121 -> 122 ;
123 [label="gill_color <= 4.0\ngini = 0.165\nsamples = 11\nvalue = [1, 10]", fillcolor="#399de5e6"] ;
121 -> 123 ;
124 [label="gini = 0.0\nsamples = 6\nvalue = [0, 6]", fillcolor="#399de5ff"] ;
123 -> 124 ;
125 [label="habitat <= 1.5\ngini = 0.32\nsamples = 5\nvalue = [1, 4]", fillcolor="#399de5bf"] ;
123 -> 125 ;
126 [label="gini = 0.0\nsamples = 3\nvalue = [0, 3]", fillcolor="#399de5ff"] ;
125 -> 126 ;
127 [label="odor <= 0.5\ngini = 0.5\nsamples = 2\nvalue = [1, 1]", fillcolor="#e5813900"] ;
125 -> 127 ;
128 [label="gini = 0.0\nsamples = 1\nvalue = [1, 0]", fillcolor="#e58139ff"] ;
127 -> 128 ;
129 [label="gini = 0.0\nsamples = 1\nvalue = [0, 1]", fillcolor="#399de5ff"] ;
127 -> 129 ;
130 [label="population <= 4.0\ngini = 0.153\nsamples = 48\nvalue = [4, 44]", fillcolor="#399de5e8"] ;
120 -> 130 ;
131 [label="cap_shape <= 2.5\ngini = 0.198\nsamples = 36\nvalue = [4, 32]", fillcolor="#399de5df"] ;
130 -> 131 ;
132 [label="population <= 1.5\ngini = 0.278\nsamples = 18\nvalue = [3, 15]", fillcolor="#399de5cc"] ;
131 -> 132 ;
133 [label="gill_color <= 2.0\ngini = 0.444\nsamples = 6\nvalue = [2, 4]", fillcolor="#399de57f"] ;
132 -> 133 ;
134 [label="gini = 0.0\nsamples = 2\nvalue = [0, 2]", fillcolor="#399de5ff"] ;
133 -> 134 ;
135 [label="stalk_surface_above_ring <= 1.5\ngini = 0.5\nsamples = 4\nvalue = [2, 2]", fillcolor="#e5813900"] ;
133 -> 135 ;
136 [label="gill_color <= 5.0\ngini = 0.5\nsamples = 2\nvalue = [1, 1]", fillcolor="#e5813900"] ;
135 -> 136 ;
137 [label="gini = 0.0\nsamples = 1\nvalue = [0, 1]", fillcolor="#399de5ff"] ;
136 -> 137 ;
138 [label="gini = 0.0\nsamples = 1\nvalue = [1, 0]", fillcolor="#e58139ff"] ;
136 -> 138 ;
139 [label="gill_color <= 5.0\ngini = 0.5\nsamples = 2\nvalue = [1, 1]", fillcolor="#e5813900"] ;
135 -> 139 ;
140 [label="gini = 0.0\nsamples = 1\nvalue = [1, 0]", fillcolor="#e58139ff"] ;
139 -> 140 ;
141 [label="gini = 0.0\nsamples = 1\nvalue = [0, 1]", fillcolor="#399de5ff"] ;
139 -> 141 ;
142 [label="gill_spacing <= 0.5\ngini = 0.153\nsamples = 12\nvalue = [1, 11]", fillcolor="#399de5e8"] ;
132 -> 142 ;
143 [label="habitat <= 1.5\ngini = 0.278\nsamples = 6\nvalue = [1, 5]", fillcolor="#399de5cc"] ;
142 -> 143 ;
144 [label="odor <= 0.5\ngini = 0.444\nsamples = 3\nvalue = [1, 2]", fillcolor="#399de57f"] ;
143 -> 144 ;
145 [label="gini = 0.0\nsamples = 2\nvalue = [0, 2]", fillcolor="#399de5ff"] ;
144 -> 145 ;
146 [label="gini = 0.0\nsamples = 1\nvalue = [1, 0]", fillcolor="#e58139ff"] ;
144 -> 146 ;
147 [label="gini = 0.0\nsamples = 3\nvalue = [0, 3]", fillcolor="#399de5ff"] ;
143 -> 147 ;
148 [label="gini = 0.0\nsamples = 6\nvalue = [0, 6]", fillcolor="#399de5ff"] ;
142 -> 148 ;
149 [label="stalk_shape <= 0.5\ngini = 0.105\nsamples = 18\nvalue = [1, 17]", fillcolor="#399de5f0"] ;
131 -> 149 ;
150 [label="gill_color <= 4.0\ngini = 0.245\nsamples = 7\nvalue = [1, 6]", fillcolor="#399de5d4"] ;
149 -> 150 ;
151 [label="odor <= 0.5\ngini = 0.375\nsamples = 4\nvalue = [1, 3]", fillcolor="#399de5aa"] ;
150 -> 151 ;
152 [label="gini = 0.0\nsamples = 2\nvalue = [0, 2]", fillcolor="#399de5ff"] ;
151 -> 152 ;
153 [label="habitat <= 1.5\ngini = 0.5\nsamples = 2\nvalue = [1, 1]", fillcolor="#e5813900"] ;
151 -> 153 ;
154 [label="gini = 0.0\nsamples = 1\nvalue = [1, 0]", fillcolor="#e58139ff"] ;
153 -> 154 ;
155 [label="gini = 0.0\nsamples = 1\nvalue = [0, 1]", fillcolor="#399de5ff"] ;
153 -> 155 ;
156 [label="gini = 0.0\nsamples = 3\nvalue = [0, 3]", fillcolor="#399de5ff"] ;
150 -> 156 ;
157 [label="gini = 0.0\nsamples = 11\nvalue = [0, 11]", fillcolor="#399de5ff"] ;
149 -> 157 ;
158 [label="gini = 0.0\nsamples = 12\nvalue = [0, 12]", fillcolor="#399de5ff"] ;
130 -> 158 ;
159 [label="population <= 1.5\ngini = 0.222\nsamples = 197\nvalue = [25, 172]", fillcolor="#399de5da"] ;
119 -> 159 ;
160 [label="gini = 0.0\nsamples = 20\nvalue = [0, 20]", fillcolor="#399de5ff"] ;
159 -> 160 ;
161 [label="ring_type <= 2.0\ngini = 0.243\nsamples = 177\nvalue = [25, 152]", fillcolor="#399de5d5"] ;
159 -> 161 ;
162 [label="gill_color <= 5.0\ngini = 0.408\nsamples = 21\nvalue = [6, 15]", fillcolor="#399de599"] ;
161 -> 162 ;
163 [label="spore_print_color <= 0.5\ngini = 0.459\nsamples = 14\nvalue = [5, 9]", fillcolor="#399de571"] ;
162 -> 163 ;
164 [label="gill_color <= 2.0\ngini = 0.49\nsamples = 7\nvalue = [3, 4]", fillcolor="#399de540"] ;
163 -> 164 ;
165 [label="stalk_surface_above_ring <= 1.5\ngini = 0.444\nsamples = 3\nvalue = [2, 1]", fillcolor="#e581397f"] ;
164 -> 165 ;
166 [label="gini = 0.0\nsamples = 1\nvalue = [0, 1]", fillcolor="#399de5ff"] ;
165 -> 166 ;
167 [label="gini = 0.0\nsamples = 2\nvalue = [2, 0]", fillcolor="#e58139ff"] ;
165 -> 167 ;
168 [label="cap_shape <= 2.5\ngini = 0.375\nsamples = 4\nvalue = [1, 3]", fillcolor="#399de5aa"] ;
164 -> 168 ;
169 [label="stalk_surface_above_ring <= 1.5\ngini = 0.5\nsamples = 2\nvalue = [1, 1]", fillcolor="#e5813900"] ;
168 -> 169 ;
170 [label="gini = 0.0\nsamples = 1\nvalue = [1, 0]", fillcolor="#e58139ff"] ;
169 -> 170 ;
171 [label="gini = 0.0\nsamples = 1\nvalue = [0, 1]", fillcolor="#399de5ff"] ;
169 -> 171 ;
172 [label="gini = 0.0\nsamples = 2\nvalue = [0, 2]", fillcolor="#399de5ff"] ;
168 -> 172 ;
173 [label="gill_color <= 2.0\ngini = 0.408\nsamples = 7\nvalue = [2, 5]", fillcolor="#399de599"] ;
163 -> 173 ;
174 [label="gini = 0.0\nsamples = 3\nvalue = [0, 3]", fillcolor="#399de5ff"] ;
173 -> 174 ;
175 [label="cap_shape <= 2.5\ngini = 0.5\nsamples = 4\nvalue = [2, 2]", fillcolor="#e5813900"] ;
173 -> 175 ;
176 [label="stalk_surface_above_ring <= 1.5\ngini = 0.5\nsamples = 2\nvalue = [1, 1]", fillcolor="#e5813900"] ;
175 -> 176 ;
177 [label="gini = 0.0\nsamples = 1\nvalue = [0, 1]", fillcolor="#399de5ff"] ;
176 -> 177 ;
178 [label="gini = 0.0\nsamples = 1\nvalue = [1, 0]", fillcolor="#e58139ff"] ;
176 -> 178 ;
179 [label="stalk_surface_above_ring <= 1.5\ngini = 0.5\nsamples = 2\nvalue = [1, 1]", fillcolor="#e5813900"] ;
175 -> 179 ;
180 [label="gini = 0.0\nsamples = 1\nvalue = [1, 0]", fillcolor="#e58139ff"] ;
179 -> 180 ;
181 [label="gini = 0.0\nsamples = 1\nvalue = [0, 1]", fillcolor="#399de5ff"] ;
179 -> 181 ;
182 [label="cap_shape <= 2.5\ngini = 0.245\nsamples = 7\nvalue = [1, 6]", fillcolor="#399de5d4"] ;
162 -> 182 ;
183 [label="gini = 0.0\nsamples = 4\nvalue = [0, 4]", fillcolor="#399de5ff"] ;
182 -> 183 ;
184 [label="stalk_surface_above_ring <= 1.5\ngini = 0.444\nsamples = 3\nvalue = [1, 2]", fillcolor="#399de57f"] ;
182 -> 184 ;
185 [label="spore_print_color <= 0.5\ngini = 0.5\nsamples = 2\nvalue = [1, 1]", fillcolor="#e5813900"] ;
184 -> 185 ;
186 [label="gini = 0.0\nsamples = 1\nvalue = [0, 1]", fillcolor="#399de5ff"] ;
185 -> 186 ;
187 [label="gini = 0.0\nsamples = 1\nvalue = [1, 0]", fillcolor="#e58139ff"] ;
185 -> 187 ;
188 [label="gini = 0.0\nsamples = 1\nvalue = [0, 1]", fillcolor="#399de5ff"] ;
184 -> 188 ;
189 [label="spore_print_color <= 0.5\ngini = 0.214\nsamples = 156\nvalue = [19, 137]", fillcolor="#399de5dc"] ;
161 -> 189 ;
190 [label="cap_surface <= 1.0\ngini = 0.237\nsamples = 80\nvalue = [11, 69]", fillcolor="#399de5d6"] ;
189 -> 190 ;
191 [label="stalk_color_above_ring <= 4.0\ngini = 0.289\nsamples = 40\nvalue = [7, 33]", fillcolor="#399de5c9"] ;
190 -> 191 ;
192 [label="population <= 4.5\ngini = 0.165\nsamples = 11\nvalue = [1, 10]", fillcolor="#399de5e6"] ;
191 -> 192 ;
193 [label="gini = 0.0\nsamples = 7\nvalue = [0, 7]", fillcolor="#399de5ff"] ;
192 -> 193 ;
194 [label="gill_color <= 4.0\ngini = 0.375\nsamples = 4\nvalue = [1, 3]", fillcolor="#399de5aa"] ;
192 -> 194 ;
195 [label="gini = 0.0\nsamples = 2\nvalue = [0, 2]", fillcolor="#399de5ff"] ;
194 -> 195 ;
196 [label="cap_shape <= 2.5\ngini = 0.5\nsamples = 2\nvalue = [1, 1]", fillcolor="#e5813900"] ;
194 -> 196 ;
197 [label="gini = 0.0\nsamples = 1\nvalue = [1, 0]", fillcolor="#e58139ff"] ;
196 -> 197 ;
198 [label="gini = 0.0\nsamples = 1\nvalue = [0, 1]", fillcolor="#399de5ff"] ;
196 -> 198 ;
199 [label="population <= 4.5\ngini = 0.328\nsamples = 29\nvalue = [6, 23]", fillcolor="#399de5bc"] ;
191 -> 199 ;
200 [label="stalk_color_below_ring <= 6.0\ngini = 0.391\nsamples = 15\nvalue = [4, 11]", fillcolor="#399de5a2"] ;
199 -> 200 ;
201 [label="stalk_color_above_ring <= 6.0\ngini = 0.469\nsamples = 8\nvalue = [3, 5]", fillcolor="#399de566"] ;
200 -> 201 ;
202 [label="gill_color <= 4.0\ngini = 0.375\nsamples = 4\nvalue = [1, 3]", fillcolor="#399de5aa"] ;
201 -> 202 ;
203 [label="gini = 0.0\nsamples = 2\nvalue = [0, 2]", fillcolor="#399de5ff"] ;
202 -> 203 ;
204 [label="cap_shape <= 2.5\ngini = 0.5\nsamples = 2\nvalue = [1, 1]", fillcolor="#e5813900"] ;
202 -> 204 ;
205 [label="gini = 0.0\nsamples = 1\nvalue = [0, 1]", fillcolor="#399de5ff"] ;
204 -> 205 ;
206 [label="gini = 0.0\nsamples = 1\nvalue = [1, 0]", fillcolor="#e58139ff"] ;
204 -> 206 ;
207 [label="cap_shape <= 2.5\ngini = 0.5\nsamples = 4\nvalue = [2, 2]", fillcolor="#e5813900"] ;
201 -> 207 ;
208 [label="gill_color <= 4.0\ngini = 0.5\nsamples = 2\nvalue = [1, 1]", fillcolor="#e5813900"] ;
207 -> 208 ;
209 [label="gini = 0.0\nsamples = 1\nvalue = [0, 1]", fillcolor="#399de5ff"] ;
208 -> 209 ;
210 [label="gini = 0.0\nsamples = 1\nvalue = [1, 0]", fillcolor="#e58139ff"] ;
208 -> 210 ;
211 [label="gill_color <= 4.0\ngini = 0.5\nsamples = 2\nvalue = [1, 1]", fillcolor="#e5813900"] ;
207 -> 211 ;
212 [label="gini = 0.0\nsamples = 1\nvalue = [1, 0]", fillcolor="#e58139ff"] ;
211 -> 212 ;
213 [label="gini = 0.0\nsamples = 1\nvalue = [0, 1]", fillcolor="#399de5ff"] ;
211 -> 213 ;
214 [label="cap_shape <= 2.5\ngini = 0.245\nsamples = 7\nvalue = [1, 6]", fillcolor="#399de5d4"] ;
200 -> 214 ;
215 [label="stalk_color_above_ring <= 6.0\ngini = 0.444\nsamples = 3\nvalue = [1, 2]", fillcolor="#399de57f"] ;
214 -> 215 ;
216 [label="gill_color <= 4.0\ngini = 0.5\nsamples = 2\nvalue = [1, 1]", fillcolor="#e5813900"] ;
215 -> 216 ;
217 [label="gini = 0.0\nsamples = 1\nvalue = [1, 0]", fillcolor="#e58139ff"] ;
216 -> 217 ;
218 [label="gini = 0.0\nsamples = 1\nvalue = [0, 1]", fillcolor="#399de5ff"] ;
216 -> 218 ;
219 [label="gini = 0.0\nsamples = 1\nvalue = [0, 1]", fillcolor="#399de5ff"] ;
215 -> 219 ;
220 [label="gini = 0.0\nsamples = 4\nvalue = [0, 4]", fillcolor="#399de5ff"] ;
214 -> 220 ;
221 [label="stalk_color_below_ring <= 6.0\ngini = 0.245\nsamples = 14\nvalue = [2, 12]", fillcolor="#399de5d4"] ;
199 -> 221 ;
222 [label="gini = 0.0\nsamples = 8\nvalue = [0, 8]", fillcolor="#399de5ff"] ;
221 -> 222 ;
223 [label="gill_color <= 4.0\ngini = 0.444\nsamples = 6\nvalue = [2, 4]", fillcolor="#399de57f"] ;
221 -> 223 ;
224 [label="cap_shape <= 2.5\ngini = 0.5\nsamples = 4\nvalue = [2, 2]", fillcolor="#e5813900"] ;
223 -> 224 ;
225 [label="gini = 0.0\nsamples = 2\nvalue = [0, 2]", fillcolor="#399de5ff"] ;
224 -> 225 ;
226 [label="gini = 0.0\nsamples = 2\nvalue = [2, 0]", fillcolor="#e58139ff"] ;
224 -> 226 ;
227 [label="gini = 0.0\nsamples = 2\nvalue = [0, 2]", fillcolor="#399de5ff"] ;
223 -> 227 ;
228 [label="stalk_color_above_ring <= 6.0\ngini = 0.18\nsamples = 40\nvalue = [4, 36]", fillcolor="#399de5e3"] ;
190 -> 228 ;
229 [label="population <= 4.5\ngini = 0.245\nsamples = 28\nvalue = [4, 24]", fillcolor="#399de5d4"] ;
228 -> 229 ;
230 [label="cap_shape <= 2.5\ngini = 0.355\nsamples = 13\nvalue = [3, 10]", fillcolor="#399de5b3"] ;
229 -> 230 ;
231 [label="stalk_color_below_ring <= 6.0\ngini = 0.48\nsamples = 5\nvalue = [2, 3]", fillcolor="#399de555"] ;
230 -> 231 ;
232 [label="gini = 0.0\nsamples = 2\nvalue = [0, 2]", fillcolor="#399de5ff"] ;
231 -> 232 ;
233 [label="gill_color <= 4.0\ngini = 0.444\nsamples = 3\nvalue = [2, 1]", fillcolor="#e581397f"] ;
231 -> 233 ;
234 [label="gini = 0.0\nsamples = 1\nvalue = [1, 0]", fillcolor="#e58139ff"] ;
233 -> 234 ;
235 [label="stalk_color_above_ring <= 4.0\ngini = 0.5\nsamples = 2\nvalue = [1, 1]", fillcolor="#e5813900"] ;
233 -> 235 ;
236 [label="gini = 0.0\nsamples = 1\nvalue = [0, 1]", fillcolor="#399de5ff"] ;
235 -> 236 ;
237 [label="gini = 0.0\nsamples = 1\nvalue = [1, 0]", fillcolor="#e58139ff"] ;
235 -> 237 ;
238 [label="gill_color <= 4.0\ngini = 0.219\nsamples = 8\nvalue = [1, 7]", fillcolor="#399de5db"] ;
230 -> 238 ;
239 [label="gini = 0.0\nsamples = 4\nvalue = [0, 4]", fillcolor="#399de5ff"] ;
238 -> 239 ;
240 [label="stalk_color_above_ring <= 4.0\ngini = 0.375\nsamples = 4\nvalue = [1, 3]", fillcolor="#399de5aa"] ;
238 -> 240 ;
241 [label="stalk_color_below_ring <= 6.0\ngini = 0.5\nsamples = 2\nvalue = [1, 1]", fillcolor="#e5813900"] ;
240 -> 241 ;
242 [label="gini = 0.0\nsamples = 1\nvalue = [1, 0]", fillcolor="#e58139ff"] ;
241 -> 242 ;
243 [label="gini = 0.0\nsamples = 1\nvalue = [0, 1]", fillcolor="#399de5ff"] ;
241 -> 243 ;
244 [label="gini = 0.0\nsamples = 2\nvalue = [0, 2]", fillcolor="#399de5ff"] ;
240 -> 244 ;
245 [label="stalk_color_above_ring <= 4.0\ngini = 0.124\nsamples = 15\nvalue = [1, 14]", fillcolor="#399de5ed"] ;
229 -> 245 ;
246 [label="gini = 0.0\nsamples = 8\nvalue = [0, 8]", fillcolor="#399de5ff"] ;
245 -> 246 ;
247 [label="gill_color <= 4.0\ngini = 0.245\nsamples = 7\nvalue = [1, 6]", fillcolor="#399de5d4"] ;
245 -> 247 ;
248 [label="cap_shape <= 2.5\ngini = 0.375\nsamples = 4\nvalue = [1, 3]", fillcolor="#399de5aa"] ;
247 -> 248 ;
249 [label="gini = 0.0\nsamples = 2\nvalue = [0, 2]", fillcolor="#399de5ff"] ;
248 -> 249 ;
250 [label="stalk_color_below_ring <= 6.0\ngini = 0.5\nsamples = 2\nvalue = [1, 1]", fillcolor="#e5813900"] ;
248 -> 250 ;
251 [label="gini = 0.0\nsamples = 1\nvalue = [0, 1]", fillcolor="#399de5ff"] ;
250 -> 251 ;
252 [label="gini = 0.0\nsamples = 1\nvalue = [1, 0]", fillcolor="#e58139ff"] ;
250 -> 252 ;
253 [label="gini = 0.0\nsamples = 3\nvalue = [0, 3]", fillcolor="#399de5ff"] ;
247 -> 253 ;
254 [label="gini = 0.0\nsamples = 12\nvalue = [0, 12]", fillcolor="#399de5ff"] ;
228 -> 254 ;
255 [label="cap_surface <= 1.0\ngini = 0.188\nsamples = 76\nvalue = [8, 68]", fillcolor="#399de5e1"] ;
189 -> 255 ;
256 [label="stalk_color_above_ring <= 6.0\ngini = 0.095\nsamples = 40\nvalue = [2, 38]", fillcolor="#399de5f2"] ;
255 -> 256 ;
257 [label="gini = 0.0\nsamples = 29\nvalue = [0, 29]", fillcolor="#399de5ff"] ;
256 -> 257 ;
258 [label="gill_color <= 4.0\ngini = 0.298\nsamples = 11\nvalue = [2, 9]", fillcolor="#399de5c6"] ;
256 -> 258 ;
259 [label="cap_shape <= 2.5\ngini = 0.408\nsamples = 7\nvalue = [2, 5]", fillcolor="#399de599"] ;
258 -> 259 ;
260 [label="stalk_color_below_ring <= 6.0\ngini = 0.375\nsamples = 4\nvalue = [1, 3]", fillcolor="#399de5aa"] ;
259 -> 260 ;
261 [label="population <= 4.5\ngini = 0.5\nsamples = 2\nvalue = [1, 1]", fillcolor="#e5813900"] ;
260 -> 261 ;
262 [label="gini = 0.0\nsamples = 1\nvalue = [1, 0]", fillcolor="#e58139ff"] ;
261 -> 262 ;
263 [label="gini = 0.0\nsamples = 1\nvalue = [0, 1]", fillcolor="#399de5ff"] ;
261 -> 263 ;
264 [label="gini = 0.0\nsamples = 2\nvalue = [0, 2]", fillcolor="#399de5ff"] ;
260 -> 264 ;
265 [label="population <= 4.5\ngini = 0.444\nsamples = 3\nvalue = [1, 2]", fillcolor="#399de57f"] ;
259 -> 265 ;
266 [label="gini = 0.0\nsamples = 2\nvalue = [0, 2]", fillcolor="#399de5ff"] ;
265 -> 266 ;
267 [label="gini = 0.0\nsamples = 1\nvalue = [1, 0]", fillcolor="#e58139ff"] ;
265 -> 267 ;
268 [label="gini = 0.0\nsamples = 4\nvalue = [0, 4]", fillcolor="#399de5ff"] ;
258 -> 268 ;
269 [label="gill_color <= 4.0\ngini = 0.278\nsamples = 36\nvalue = [6, 30]", fillcolor="#399de5cc"] ;
255 -> 269 ;
270 [label="stalk_color_above_ring <= 4.0\ngini = 0.091\nsamples = 21\nvalue = [1, 20]", fillcolor="#399de5f2"] ;
269 -> 270 ;
271 [label="population <= 4.5\ngini = 0.245\nsamples = 7\nvalue = [1, 6]", fillcolor="#399de5d4"] ;
270 -> 271 ;
272 [label="gini = 0.0\nsamples = 4\nvalue = [0, 4]", fillcolor="#399de5ff"] ;
271 -> 272 ;
273 [label="stalk_color_below_ring <= 6.0\ngini = 0.444\nsamples = 3\nvalue = [1, 2]", fillcolor="#399de57f"] ;
271 -> 273 ;
274 [label="gini = 0.0\nsamples = 1\nvalue = [0, 1]", fillcolor="#399de5ff"] ;
273 -> 274 ;
275 [label="cap_shape <= 2.5\ngini = 0.5\nsamples = 2\nvalue = [1, 1]", fillcolor="#e5813900"] ;
273 -> 275 ;
276 [label="gini = 0.0\nsamples = 1\nvalue = [1, 0]", fillcolor="#e58139ff"] ;
275 -> 276 ;
277 [label="gini = 0.0\nsamples = 1\nvalue = [0, 1]", fillcolor="#399de5ff"] ;
275 -> 277 ;
278 [label="gini = 0.0\nsamples = 14\nvalue = [0, 14]", fillcolor="#399de5ff"] ;
270 -> 278 ;
279 [label="stalk_color_below_ring <= 6.0\ngini = 0.444\nsamples = 15\nvalue = [5, 10]", fillcolor="#399de57f"] ;
269 -> 279 ;
280 [label="stalk_color_above_ring <= 4.0\ngini = 0.48\nsamples = 10\nvalue = [4, 6]", fillcolor="#399de555"] ;
279 -> 280 ;
281 [label="population <= 4.5\ngini = 0.375\nsamples = 4\nvalue = [3, 1]", fillcolor="#e58139aa"] ;
280 -> 281 ;
282 [label="gini = 0.0\nsamples = 2\nvalue = [2, 0]", fillcolor="#e58139ff"] ;
281 -> 282 ;
283 [label="cap_shape <= 2.5\ngini = 0.5\nsamples = 2\nvalue = [1, 1]", fillcolor="#e5813900"] ;
281 -> 283 ;
284 [label="gini = 0.0\nsamples = 1\nvalue = [0, 1]", fillcolor="#399de5ff"] ;
283 -> 284 ;
285 [label="gini = 0.0\nsamples = 1\nvalue = [1, 0]", fillcolor="#e58139ff"] ;
283 -> 285 ;
286 [label="stalk_color_above_ring <= 6.0\ngini = 0.278\nsamples = 6\nvalue = [1, 5]", fillcolor="#399de5cc"] ;
280 -> 286 ;
287 [label="cap_shape <= 2.5\ngini = 0.444\nsamples = 3\nvalue = [1, 2]", fillcolor="#399de57f"] ;
286 -> 287 ;
288 [label="gini = 0.0\nsamples = 2\nvalue = [0, 2]", fillcolor="#399de5ff"] ;
287 -> 288 ;
289 [label="gini = 0.0\nsamples = 1\nvalue = [1, 0]", fillcolor="#e58139ff"] ;
287 -> 289 ;
290 [label="gini = 0.0\nsamples = 3\nvalue = [0, 3]", fillcolor="#399de5ff"] ;
286 -> 290 ;
291 [label="stalk_color_above_ring <= 6.0\ngini = 0.32\nsamples = 5\nvalue = [1, 4]", fillcolor="#399de5bf"] ;
279 -> 291 ;
292 [label="gini = 0.0\nsamples = 4\nvalue = [0, 4]", fillcolor="#399de5ff"] ;
291 -> 292 ;
293 [label="gini = 0.0\nsamples = 1\nvalue = [1, 0]", fillcolor="#e58139ff"] ;
291 -> 293 ;
294 [label="cap_shape <= 2.5\ngini = 0.123\nsamples = 792\nvalue = [52, 740]", fillcolor="#399de5ed"] ;
90 -> 294 ;
295 [label="gill_color <= 2.0\ngini = 0.142\nsamples = 442\nvalue = [34, 408]", fillcolor="#399de5ea"] ;
294 -> 295 ;
296 [label="population <= 4.5\ngini = 0.185\nsamples = 213\nvalue = [22, 191]", fillcolor="#399de5e2"] ;
295 -> 296 ;
297 [label="cap_shape <= 1.0\ngini = 0.128\nsamples = 145\nvalue = [10, 135]", fillcolor="#399de5ec"] ;
296 -> 297 ;
298 [label="population <= 2.5\ngini = 0.26\nsamples = 26\nvalue = [4, 22]", fillcolor="#399de5d1"] ;
297 -> 298 ;
299 [label="odor <= 0.5\ngini = 0.142\nsamples = 13\nvalue = [1, 12]", fillcolor="#399de5ea"] ;
298 -> 299 ;
300 [label="spore_print_color <= 0.5\ngini = 0.278\nsamples = 6\nvalue = [1, 5]", fillcolor="#399de5cc"] ;
299 -> 300 ;
301 [label="habitat <= 1.0\ngini = 0.444\nsamples = 3\nvalue = [1, 2]", fillcolor="#399de57f"] ;
300 -> 301 ;
302 [label="gini = 0.0\nsamples = 1\nvalue = [1, 0]", fillcolor="#e58139ff"] ;
301 -> 302 ;
303 [label="gini = 0.0\nsamples = 2\nvalue = [0, 2]", fillcolor="#399de5ff"] ;
301 -> 303 ;
304 [label="gini = 0.0\nsamples = 3\nvalue = [0, 3]", fillcolor="#399de5ff"] ;
300 -> 304 ;
305 [label="gini = 0.0\nsamples = 7\nvalue = [0, 7]", fillcolor="#399de5ff"] ;
299 -> 305 ;
306 [label="odor <= 0.5\ngini = 0.355\nsamples = 13\nvalue = [3, 10]", fillcolor="#399de5b3"] ;
298 -> 306 ;
307 [label="gini = 0.0\nsamples = 7\nvalue = [0, 7]", fillcolor="#399de5ff"] ;
306 -> 307 ;
308 [label="cap_color <= 8.5\ngini = 0.5\nsamples = 6\nvalue = [3, 3]", fillcolor="#e5813900"] ;
306 -> 308 ;
309 [label="habitat <= 1.0\ngini = 0.444\nsamples = 3\nvalue = [2, 1]", fillcolor="#e581397f"] ;
308 -> 309 ;
310 [label="gini = 0.0\nsamples = 2\nvalue = [2, 0]", fillcolor="#e58139ff"] ;
309 -> 310 ;
311 [label="gini = 0.0\nsamples = 1\nvalue = [0, 1]", fillcolor="#399de5ff"] ;
309 -> 311 ;
312 [label="habitat <= 1.0\ngini = 0.444\nsamples = 3\nvalue = [1, 2]", fillcolor="#399de57f"] ;
308 -> 312 ;
313 [label="gini = 0.0\nsamples = 2\nvalue = [0, 2]", fillcolor="#399de5ff"] ;
312 -> 313 ;
314 [label="gini = 0.0\nsamples = 1\nvalue = [1, 0]", fillcolor="#e58139ff"] ;
312 -> 314 ;
315 [label="stalk_shape <= 0.5\ngini = 0.096\nsamples = 119\nvalue = [6, 113]", fillcolor="#399de5f1"] ;
297 -> 315 ;
316 [label="gini = 0.0\nsamples = 32\nvalue = [0, 32]", fillcolor="#399de5ff"] ;
315 -> 316 ;
317 [label="stalk_color_above_ring <= 6.0\ngini = 0.128\nsamples = 87\nvalue = [6, 81]", fillcolor="#399de5ec"] ;
315 -> 317 ;
318 [label="stalk_color_below_ring <= 6.0\ngini = 0.048\nsamples = 41\nvalue = [1, 40]", fillcolor="#399de5f9"] ;
317 -> 318 ;
319 [label="gini = 0.0\nsamples = 27\nvalue = [0, 27]", fillcolor="#399de5ff"] ;
318 -> 319 ;
320 [label="cap_color <= 5.0\ngini = 0.133\nsamples = 14\nvalue = [1, 13]", fillcolor="#399de5eb"] ;
318 -> 320 ;
321 [label="spore_print_color <= 0.5\ngini = 0.278\nsamples = 6\nvalue = [1, 5]", fillcolor="#399de5cc"] ;
320 -> 321 ;
322 [label="gini = 0.0\nsamples = 3\nvalue = [0, 3]", fillcolor="#399de5ff"] ;
321 -> 322 ;
323 [label="stalk_color_above_ring <= 4.0\ngini = 0.444\nsamples = 3\nvalue = [1, 2]", fillcolor="#399de57f"] ;
321 -> 323 ;
324 [label="gini = 0.0\nsamples = 2\nvalue = [0, 2]", fillcolor="#399de5ff"] ;
323 -> 324 ;
325 [label="gini = 0.0\nsamples = 1\nvalue = [1, 0]", fillcolor="#e58139ff"] ;
323 -> 325 ;
326 [label="gini = 0.0\nsamples = 8\nvalue = [0, 8]", fillcolor="#399de5ff"] ;
320 -> 326 ;
327 [label="stalk_surface_above_ring <= 1.5\ngini = 0.194\nsamples = 46\nvalue = [5, 41]", fillcolor="#399de5e0"] ;
317 -> 327 ;
328 [label="gini = 0.0\nsamples = 13\nvalue = [0, 13]", fillcolor="#399de5ff"] ;
327 -> 328 ;
329 [label="stalk_color_below_ring <= 4.0\ngini = 0.257\nsamples = 33\nvalue = [5, 28]", fillcolor="#399de5d1"] ;
327 -> 329 ;
330 [label="gini = 0.0\nsamples = 6\nvalue = [0, 6]", fillcolor="#399de5ff"] ;
329 -> 330 ;
331 [label="cap_surface <= 1.0\ngini = 0.302\nsamples = 27\nvalue = [5, 22]", fillcolor="#399de5c5"] ;
329 -> 331 ;
332 [label="stalk_color_below_ring <= 6.0\ngini = 0.255\nsamples = 20\nvalue = [3, 17]", fillcolor="#399de5d2"] ;
331 -> 332 ;
333 [label="gini = 0.0\nsamples = 3\nvalue = [0, 3]", fillcolor="#399de5ff"] ;
332 -> 333 ;
334 [label="cap_color <= 5.0\ngini = 0.291\nsamples = 17\nvalue = [3, 14]", fillcolor="#399de5c8"] ;
332 -> 334 ;
335 [label="stalk_surface_below_ring <= 1.5\ngini = 0.375\nsamples = 8\nvalue = [2, 6]", fillcolor="#399de5aa"] ;
334 -> 335 ;
336 [label="gini = 0.0\nsamples = 4\nvalue = [0, 4]", fillcolor="#399de5ff"] ;
335 -> 336 ;
337 [label="spore_print_color <= 0.5\ngini = 0.5\nsamples = 4\nvalue = [2, 2]", fillcolor="#e5813900"] ;
335 -> 337 ;
338 [label="gini = 0.0\nsamples = 1\nvalue = [0, 1]", fillcolor="#399de5ff"] ;
337 -> 338 ;
339 [label="ring_type <= 2.0\ngini = 0.444\nsamples = 3\nvalue = [2, 1]", fillcolor="#e581397f"] ;
337 -> 339 ;
340 [label="population <= 1.5\ngini = 0.5\nsamples = 2\nvalue = [1, 1]", fillcolor="#e5813900"] ;
339 -> 340 ;
341 [label="gini = 0.0\nsamples = 1\nvalue = [1, 0]", fillcolor="#e58139ff"] ;
340 -> 341 ;
342 [label="gini = 0.0\nsamples = 1\nvalue = [0, 1]", fillcolor="#399de5ff"] ;
340 -> 342 ;
343 [label="gini = 0.0\nsamples = 1\nvalue = [1, 0]", fillcolor="#e58139ff"] ;
339 -> 343 ;
344 [label="stalk_surface_below_ring <= 1.5\ngini = 0.198\nsamples = 9\nvalue = [1, 8]", fillcolor="#399de5df"] ;
334 -> 344 ;
345 [label="spore_print_color <= 0.5\ngini = 0.444\nsamples = 3\nvalue = [1, 2]", fillcolor="#399de57f"] ;
344 -> 345 ;
346 [label="gini = 0.0\nsamples = 1\nvalue = [1, 0]", fillcolor="#e58139ff"] ;
345 -> 346 ;
347 [label="gini = 0.0\nsamples = 2\nvalue = [0, 2]", fillcolor="#399de5ff"] ;
345 -> 347 ;
348 [label="gini = 0.0\nsamples = 6\nvalue = [0, 6]", fillcolor="#399de5ff"] ;
344 -> 348 ;
349 [label="cap_color <= 5.0\ngini = 0.408\nsamples = 7\nvalue = [2, 5]", fillcolor="#399de599"] ;
331 -> 349 ;
350 [label="gini = 0.0\nsamples = 3\nvalue = [0, 3]", fillcolor="#399de5ff"] ;
349 -> 350 ;
351 [label="spore_print_color <= 0.5\ngini = 0.5\nsamples = 4\nvalue = [2, 2]", fillcolor="#e5813900"] ;
349 -> 351 ;
352 [label="gini = 0.0\nsamples = 2\nvalue = [2, 0]", fillcolor="#e58139ff"] ;
351 -> 352 ;
353 [label="gini = 0.0\nsamples = 2\nvalue = [0, 2]", fillcolor="#399de5ff"] ;
351 -> 353 ;
354 [label="habitat <= 4.5\ngini = 0.291\nsamples = 68\nvalue = [12, 56]", fillcolor="#399de5c8"] ;
296 -> 354 ;
355 [label="gini = 0.0\nsamples = 6\nvalue = [0, 6]", fillcolor="#399de5ff"] ;
354 -> 355 ;
356 [label="spore_print_color <= 0.5\ngini = 0.312\nsamples = 62\nvalue = [12, 50]", fillcolor="#399de5c2"] ;
354 -> 356 ;
357 [label="stalk_color_below_ring <= 6.0\ngini = 0.271\nsamples = 31\nvalue = [5, 26]", fillcolor="#399de5ce"] ;
356 -> 357 ;
358 [label="stalk_color_below_ring <= 4.0\ngini = 0.351\nsamples = 22\nvalue = [5, 17]", fillcolor="#399de5b4"] ;
357 -> 358 ;
359 [label="cap_color <= 5.0\ngini = 0.18\nsamples = 10\nvalue = [1, 9]", fillcolor="#399de5e3"] ;
358 -> 359 ;
360 [label="gini = 0.0\nsamples = 5\nvalue = [0, 5]", fillcolor="#399de5ff"] ;
359 -> 360 ;
361 [label="cap_surface <= 1.0\ngini = 0.32\nsamples = 5\nvalue = [1, 4]", fillcolor="#399de5bf"] ;
359 -> 361 ;
362 [label="stalk_color_above_ring <= 4.0\ngini = 0.444\nsamples = 3\nvalue = [1, 2]", fillcolor="#399de57f"] ;
361 -> 362 ;
363 [label="gini = 0.0\nsamples = 1\nvalue = [0, 1]", fillcolor="#399de5ff"] ;
362 -> 363 ;
364 [label="stalk_color_above_ring <= 6.0\ngini = 0.5\nsamples = 2\nvalue = [1, 1]", fillcolor="#e5813900"] ;
362 -> 364 ;
365 [label="gini = 0.0\nsamples = 1\nvalue = [1, 0]", fillcolor="#e58139ff"] ;
364 -> 365 ;
366 [label="gini = 0.0\nsamples = 1\nvalue = [0, 1]", fillcolor="#399de5ff"] ;
364 -> 366 ;
367 [label="gini = 0.0\nsamples = 2\nvalue = [0, 2]", fillcolor="#399de5ff"] ;
361 -> 367 ;
368 [label="stalk_color_above_ring <= 4.0\ngini = 0.444\nsamples = 12\nvalue = [4, 8]", fillcolor="#399de57f"] ;
358 -> 368 ;
369 [label="cap_surface <= 1.0\ngini = 0.375\nsamples = 4\nvalue = [1, 3]", fillcolor="#399de5aa"] ;
368 -> 369 ;
370 [label="cap_color <= 5.0\ngini = 0.5\nsamples = 2\nvalue = [1, 1]", fillcolor="#e5813900"] ;
369 -> 370 ;
371 [label="gini = 0.0\nsamples = 1\nvalue = [0, 1]", fillcolor="#399de5ff"] ;
370 -> 371 ;
372 [label="gini = 0.0\nsamples = 1\nvalue = [1, 0]", fillcolor="#e58139ff"] ;
370 -> 372 ;
373 [label="gini = 0.0\nsamples = 2\nvalue = [0, 2]", fillcolor="#399de5ff"] ;
369 -> 373 ;
374 [label="cap_surface <= 1.0\ngini = 0.469\nsamples = 8\nvalue = [3, 5]", fillcolor="#399de566"] ;
368 -> 374 ;
375 [label="stalk_color_above_ring <= 6.0\ngini = 0.375\nsamples = 4\nvalue = [1, 3]", fillcolor="#399de5aa"] ;
374 -> 375 ;
376 [label="cap_color <= 5.0\ngini = 0.5\nsamples = 2\nvalue = [1, 1]", fillcolor="#e5813900"] ;
375 -> 376 ;
377 [label="gini = 0.0\nsamples = 1\nvalue = [0, 1]", fillcolor="#399de5ff"] ;
376 -> 377 ;
378 [label="gini = 0.0\nsamples = 1\nvalue = [1, 0]", fillcolor="#e58139ff"] ;
376 -> 378 ;
379 [label="gini = 0.0\nsamples = 2\nvalue = [0, 2]", fillcolor="#399de5ff"] ;
375 -> 379 ;
380 [label="cap_color <= 5.0\ngini = 0.5\nsamples = 4\nvalue = [2, 2]", fillcolor="#e5813900"] ;
374 -> 380 ;
381 [label="gini = 0.0\nsamples = 2\nvalue = [2, 0]", fillcolor="#e58139ff"] ;
380 -> 381 ;
382 [label="gini = 0.0\nsamples = 2\nvalue = [0, 2]", fillcolor="#399de5ff"] ;
380 -> 382 ;
383 [label="gini = 0.0\nsamples = 9\nvalue = [0, 9]", fillcolor="#399de5ff"] ;
357 -> 383 ;
384 [label="stalk_color_above_ring <= 4.0\ngini = 0.35\nsamples = 31\nvalue = [7, 24]", fillcolor="#399de5b5"] ;
356 -> 384 ;
385 [label="stalk_color_below_ring <= 4.0\ngini = 0.463\nsamples = 11\nvalue = [4, 7]", fillcolor="#399de56d"] ;
384 -> 385 ;
386 [label="cap_color <= 5.0\ngini = 0.375\nsamples = 4\nvalue = [3, 1]", fillcolor="#e58139aa"] ;
385 -> 386 ;
387 [label="cap_surface <= 1.0\ngini = 0.5\nsamples = 2\nvalue = [1, 1]", fillcolor="#e5813900"] ;
386 -> 387 ;
388 [label="gini = 0.0\nsamples = 1\nvalue = [1, 0]", fillcolor="#e58139ff"] ;
387 -> 388 ;
389 [label="gini = 0.0\nsamples = 1\nvalue = [0, 1]", fillcolor="#399de5ff"] ;
387 -> 389 ;
390 [label="gini = 0.0\nsamples = 2\nvalue = [2, 0]", fillcolor="#e58139ff"] ;
386 -> 390 ;
391 [label="cap_color <= 5.0\ngini = 0.245\nsamples = 7\nvalue = [1, 6]", fillcolor="#399de5d4"] ;
385 -> 391 ;
392 [label="gini = 0.0\nsamples = 4\nvalue = [0, 4]", fillcolor="#399de5ff"] ;
391 -> 392 ;
393 [label="cap_surface <= 1.0\ngini = 0.444\nsamples = 3\nvalue = [1, 2]", fillcolor="#399de57f"] ;
391 -> 393 ;
394 [label="stalk_color_below_ring <= 6.0\ngini = 0.5\nsamples = 2\nvalue = [1, 1]", fillcolor="#e5813900"] ;
393 -> 394 ;
395 [label="gini = 0.0\nsamples = 1\nvalue = [0, 1]", fillcolor="#399de5ff"] ;
394 -> 395 ;
396 [label="gini = 0.0\nsamples = 1\nvalue = [1, 0]", fillcolor="#e58139ff"] ;
394 -> 396 ;
397 [label="gini = 0.0\nsamples = 1\nvalue = [0, 1]", fillcolor="#399de5ff"] ;
393 -> 397 ;
398 [label="cap_color <= 5.0\ngini = 0.255\nsamples = 20\nvalue = [3, 17]", fillcolor="#399de5d2"] ;
384 -> 398 ;
399 [label="stalk_color_below_ring <= 6.0\ngini = 0.397\nsamples = 11\nvalue = [3, 8]", fillcolor="#399de59f"] ;
398 -> 399 ;
400 [label="cap_surface <= 1.0\ngini = 0.245\nsamples = 7\nvalue = [1, 6]", fillcolor="#399de5d4"] ;
399 -> 400 ;
401 [label="gini = 0.0\nsamples = 4\nvalue = [0, 4]", fillcolor="#399de5ff"] ;
400 -> 401 ;
402 [label="stalk_color_below_ring <= 4.0\ngini = 0.444\nsamples = 3\nvalue = [1, 2]", fillcolor="#399de57f"] ;
400 -> 402 ;
403 [label="gini = 0.0\nsamples = 1\nvalue = [0, 1]", fillcolor="#399de5ff"] ;
402 -> 403 ;
404 [label="stalk_color_above_ring <= 6.0\ngini = 0.5\nsamples = 2\nvalue = [1, 1]", fillcolor="#e5813900"] ;
402 -> 404 ;
405 [label="gini = 0.0\nsamples = 1\nvalue = [0, 1]", fillcolor="#399de5ff"] ;
404 -> 405 ;
406 [label="gini = 0.0\nsamples = 1\nvalue = [1, 0]", fillcolor="#e58139ff"] ;
404 -> 406 ;
407 [label="stalk_color_above_ring <= 6.0\ngini = 0.5\nsamples = 4\nvalue = [2, 2]", fillcolor="#e5813900"] ;
399 -> 407 ;
408 [label="cap_surface <= 1.0\ngini = 0.5\nsamples = 2\nvalue = [1, 1]", fillcolor="#e5813900"] ;
407 -> 408 ;
409 [label="gini = 0.0\nsamples = 1\nvalue = [1, 0]", fillcolor="#e58139ff"] ;
408 -> 409 ;
410 [label="gini = 0.0\nsamples = 1\nvalue = [0, 1]", fillcolor="#399de5ff"] ;
408 -> 410 ;
411 [label="cap_surface <= 1.0\ngini = 0.5\nsamples = 2\nvalue = [1, 1]", fillcolor="#e5813900"] ;
407 -> 411 ;
412 [label="gini = 0.0\nsamples = 1\nvalue = [0, 1]", fillcolor="#399de5ff"] ;
411 -> 412 ;
413 [label="gini = 0.0\nsamples = 1\nvalue = [1, 0]", fillcolor="#e58139ff"] ;
411 -> 413 ;
414 [label="gini = 0.0\nsamples = 9\nvalue = [0, 9]", fillcolor="#399de5ff"] ;
398 -> 414 ;
415 [label="odor <= 0.5\ngini = 0.099\nsamples = 229\nvalue = [12, 217]", fillcolor="#399de5f1"] ;
295 -> 415 ;
416 [label="cap_shape <= 1.0\ngini = 0.257\nsamples = 33\nvalue = [5, 28]", fillcolor="#399de5d1"] ;
415 -> 416 ;
417 [label="habitat <= 1.0\ngini = 0.142\nsamples = 13\nvalue = [1, 12]", fillcolor="#399de5ea"] ;
416 -> 417 ;
418 [label="gini = 0.0\nsamples = 7\nvalue = [0, 7]", fillcolor="#399de5ff"] ;
417 -> 418 ;
419 [label="population <= 2.5\ngini = 0.278\nsamples = 6\nvalue = [1, 5]", fillcolor="#399de5cc"] ;
417 -> 419 ;
420 [label="gini = 0.0\nsamples = 3\nvalue = [0, 3]", fillcolor="#399de5ff"] ;
419 -> 420 ;
421 [label="spore_print_color <= 0.5\ngini = 0.444\nsamples = 3\nvalue = [1, 2]", fillcolor="#399de57f"] ;
419 -> 421 ;
422 [label="cap_color <= 8.5\ngini = 0.5\nsamples = 2\nvalue = [1, 1]", fillcolor="#e5813900"] ;
421 -> 422 ;
423 [label="gini = 0.0\nsamples = 1\nvalue = [1, 0]", fillcolor="#e58139ff"] ;
422 -> 423 ;
424 [label="gini = 0.0\nsamples = 1\nvalue = [0, 1]", fillcolor="#399de5ff"] ;
422 -> 424 ;
425 [label="gini = 0.0\nsamples = 1\nvalue = [0, 1]", fillcolor="#399de5ff"] ;
421 -> 425 ;
426 [label="population <= 2.5\ngini = 0.32\nsamples = 20\nvalue = [4, 16]", fillcolor="#399de5bf"] ;
416 -> 426 ;
427 [label="spore_print_color <= 0.5\ngini = 0.469\nsamples = 8\nvalue = [3, 5]", fillcolor="#399de566"] ;
426 -> 427 ;
428 [label="cap_color <= 8.5\ngini = 0.375\nsamples = 4\nvalue = [1, 3]", fillcolor="#399de5aa"] ;
427 -> 428 ;
429 [label="gini = 0.0\nsamples = 2\nvalue = [0, 2]", fillcolor="#399de5ff"] ;
428 -> 429 ;
430 [label="habitat <= 1.0\ngini = 0.5\nsamples = 2\nvalue = [1, 1]", fillcolor="#e5813900"] ;
428 -> 430 ;
431 [label="gini = 0.0\nsamples = 1\nvalue = [0, 1]", fillcolor="#399de5ff"] ;
430 -> 431 ;
432 [label="gini = 0.0\nsamples = 1\nvalue = [1, 0]", fillcolor="#e58139ff"] ;
430 -> 432 ;
433 [label="cap_color <= 8.5\ngini = 0.5\nsamples = 4\nvalue = [2, 2]", fillcolor="#e5813900"] ;
427 -> 433 ;
434 [label="habitat <= 1.0\ngini = 0.5\nsamples = 2\nvalue = [1, 1]", fillcolor="#e5813900"] ;
433 -> 434 ;
435 [label="gini = 0.0\nsamples = 1\nvalue = [1, 0]", fillcolor="#e58139ff"] ;
434 -> 435 ;
436 [label="gini = 0.0\nsamples = 1\nvalue = [0, 1]", fillcolor="#399de5ff"] ;
434 -> 436 ;
437 [label="habitat <= 1.0\ngini = 0.5\nsamples = 2\nvalue = [1, 1]", fillcolor="#e5813900"] ;
433 -> 437 ;
438 [label="gini = 0.0\nsamples = 1\nvalue = [0, 1]", fillcolor="#399de5ff"] ;
437 -> 438 ;
439 [label="gini = 0.0\nsamples = 1\nvalue = [1, 0]", fillcolor="#e58139ff"] ;
437 -> 439 ;
440 [label="stalk_root <= 2.5\ngini = 0.153\nsamples = 12\nvalue = [1, 11]", fillcolor="#399de5e8"] ;
426 -> 440 ;
441 [label="gini = 0.0\nsamples = 6\nvalue = [0, 6]", fillcolor="#399de5ff"] ;
440 -> 441 ;
442 [label="spore_print_color <= 0.5\ngini = 0.278\nsamples = 6\nvalue = [1, 5]", fillcolor="#399de5cc"] ;
440 -> 442 ;
443 [label="gini = 0.0\nsamples = 3\nvalue = [0, 3]", fillcolor="#399de5ff"] ;
442 -> 443 ;
444 [label="habitat <= 1.5\ngini = 0.444\nsamples = 3\nvalue = [1, 2]", fillcolor="#399de57f"] ;
442 -> 444 ;
445 [label="population <= 4.0\ngini = 0.5\nsamples = 2\nvalue = [1, 1]", fillcolor="#e5813900"] ;
444 -> 445 ;
446 [label="gini = 0.0\nsamples = 1\nvalue = [1, 0]", fillcolor="#e58139ff"] ;
445 -> 446 ;
447 [label="gini = 0.0\nsamples = 1\nvalue = [0, 1]", fillcolor="#399de5ff"] ;
445 -> 447 ;
448 [label="gini = 0.0\nsamples = 1\nvalue = [0, 1]", fillcolor="#399de5ff"] ;
444 -> 448 ;
449 [label="stalk_surface_above_ring <= 1.5\ngini = 0.069\nsamples = 196\nvalue = [7, 189]", fillcolor="#399de5f6"] ;
415 -> 449 ;
450 [label="gill_color <= 5.0\ngini = 0.204\nsamples = 26\nvalue = [3, 23]", fillcolor="#399de5de"] ;
449 -> 450 ;
451 [label="spore_print_color <= 0.5\ngini = 0.133\nsamples = 14\nvalue = [1, 13]", fillcolor="#399de5eb"] ;
450 -> 451 ;
452 [label="stalk_surface_below_ring <= 1.5\ngini = 0.245\nsamples = 7\nvalue = [1, 6]", fillcolor="#399de5d4"] ;
451 -> 452 ;
453 [label="cap_color <= 5.5\ngini = 0.444\nsamples = 3\nvalue = [1, 2]", fillcolor="#399de57f"] ;
452 -> 453 ;
454 [label="population <= 1.5\ngini = 0.5\nsamples = 2\nvalue = [1, 1]", fillcolor="#e5813900"] ;
453 -> 454 ;
455 [label="gini = 0.0\nsamples = 1\nvalue = [1, 0]", fillcolor="#e58139ff"] ;
454 -> 455 ;
456 [label="gini = 0.0\nsamples = 1\nvalue = [0, 1]", fillcolor="#399de5ff"] ;
454 -> 456 ;
457 [label="gini = 0.0\nsamples = 1\nvalue = [0, 1]", fillcolor="#399de5ff"] ;
453 -> 457 ;
458 [label="gini = 0.0\nsamples = 4\nvalue = [0, 4]", fillcolor="#399de5ff"] ;
452 -> 458 ;
459 [label="gini = 0.0\nsamples = 7\nvalue = [0, 7]", fillcolor="#399de5ff"] ;
451 -> 459 ;
460 [label="spore_print_color <= 0.5\ngini = 0.278\nsamples = 12\nvalue = [2, 10]", fillcolor="#399de5cc"] ;
450 -> 460 ;
461 [label="gini = 0.0\nsamples = 6\nvalue = [0, 6]", fillcolor="#399de5ff"] ;
460 -> 461 ;
462 [label="stalk_surface_below_ring <= 1.5\ngini = 0.444\nsamples = 6\nvalue = [2, 4]", fillcolor="#399de57f"] ;
460 -> 462 ;
463 [label="gini = 0.0\nsamples = 3\nvalue = [0, 3]", fillcolor="#399de5ff"] ;
462 -> 463 ;
464 [label="population <= 1.5\ngini = 0.444\nsamples = 3\nvalue = [2, 1]", fillcolor="#e581397f"] ;
462 -> 464 ;
465 [label="gini = 0.0\nsamples = 1\nvalue = [1, 0]", fillcolor="#e58139ff"] ;
464 -> 465 ;
466 [label="cap_color <= 5.5\ngini = 0.5\nsamples = 2\nvalue = [1, 1]", fillcolor="#e5813900"] ;
464 -> 466 ;
467 [label="gini = 0.0\nsamples = 1\nvalue = [0, 1]", fillcolor="#399de5ff"] ;
466 -> 467 ;
468 [label="gini = 0.0\nsamples = 1\nvalue = [1, 0]", fillcolor="#e58139ff"] ;
466 -> 468 ;
469 [label="cap_color <= 5.0\ngini = 0.046\nsamples = 170\nvalue = [4, 166]", fillcolor="#399de5f9"] ;
449 -> 469 ;
470 [label="gini = 0.0\nsamples = 70\nvalue = [0, 70]", fillcolor="#399de5ff"] ;
469 -> 470 ;
471 [label="stalk_surface_below_ring <= 0.5\ngini = 0.077\nsamples = 100\nvalue = [4, 96]", fillcolor="#399de5f4"] ;
469 -> 471 ;
472 [label="population <= 1.5\ngini = 0.375\nsamples = 4\nvalue = [1, 3]", fillcolor="#399de5aa"] ;
471 -> 472 ;
473 [label="gini = 0.0\nsamples = 3\nvalue = [0, 3]", fillcolor="#399de5ff"] ;
472 -> 473 ;
474 [label="gini = 0.0\nsamples = 1\nvalue = [1, 0]", fillcolor="#e58139ff"] ;
472 -> 474 ;
475 [label="stalk_color_below_ring <= 6.0\ngini = 0.061\nsamples = 96\nvalue = [3, 93]", fillcolor="#399de5f7"] ;
471 -> 475 ;
476 [label="stalk_color_above_ring <= 6.0\ngini = 0.139\nsamples = 40\nvalue = [3, 37]", fillcolor="#399de5ea"] ;
475 -> 476 ;
477 [label="population <= 4.5\ngini = 0.074\nsamples = 26\nvalue = [1, 25]", fillcolor="#399de5f5"] ;
476 -> 477 ;
478 [label="cap_surface <= 1.0\ngini = 0.153\nsamples = 12\nvalue = [1, 11]", fillcolor="#399de5e8"] ;
477 -> 478 ;
479 [label="spore_print_color <= 0.5\ngini = 0.32\nsamples = 5\nvalue = [1, 4]", fillcolor="#399de5bf"] ;
478 -> 479 ;
480 [label="stalk_color_below_ring <= 4.0\ngini = 0.5\nsamples = 2\nvalue = [1, 1]", fillcolor="#e5813900"] ;
479 -> 480 ;
481 [label="gini = 0.0\nsamples = 1\nvalue = [1, 0]", fillcolor="#e58139ff"] ;
480 -> 481 ;
482 [label="gini = 0.0\nsamples = 1\nvalue = [0, 1]", fillcolor="#399de5ff"] ;
480 -> 482 ;
483 [label="gini = 0.0\nsamples = 3\nvalue = [0, 3]", fillcolor="#399de5ff"] ;
479 -> 483 ;
484 [label="gini = 0.0\nsamples = 7\nvalue = [0, 7]", fillcolor="#399de5ff"] ;
478 -> 484 ;
485 [label="gini = 0.0\nsamples = 14\nvalue = [0, 14]", fillcolor="#399de5ff"] ;
477 -> 485 ;
486 [label="stalk_color_below_ring <= 4.0\ngini = 0.245\nsamples = 14\nvalue = [2, 12]", fillcolor="#399de5d4"] ;
476 -> 486 ;
487 [label="gini = 0.0\nsamples = 8\nvalue = [0, 8]", fillcolor="#399de5ff"] ;
486 -> 487 ;
488 [label="cap_surface <= 1.0\ngini = 0.444\nsamples = 6\nvalue = [2, 4]", fillcolor="#399de57f"] ;
486 -> 488 ;
489 [label="spore_print_color <= 0.5\ngini = 0.5\nsamples = 2\nvalue = [1, 1]", fillcolor="#e5813900"] ;
488 -> 489 ;
490 [label="gini = 0.0\nsamples = 1\nvalue = [1, 0]", fillcolor="#e58139ff"] ;
489 -> 490 ;
491 [label="gini = 0.0\nsamples = 1\nvalue = [0, 1]", fillcolor="#399de5ff"] ;
489 -> 491 ;
492 [label="population <= 4.5\ngini = 0.375\nsamples = 4\nvalue = [1, 3]", fillcolor="#399de5aa"] ;
488 -> 492 ;
493 [label="spore_print_color <= 0.5\ngini = 0.5\nsamples = 2\nvalue = [1, 1]", fillcolor="#e5813900"] ;
492 -> 493 ;
494 [label="gini = 0.0\nsamples = 1\nvalue = [0, 1]", fillcolor="#399de5ff"] ;
493 -> 494 ;
495 [label="gini = 0.0\nsamples = 1\nvalue = [1, 0]", fillcolor="#e58139ff"] ;
493 -> 495 ;
496 [label="gini = 0.0\nsamples = 2\nvalue = [0, 2]", fillcolor="#399de5ff"] ;
492 -> 496 ;
497 [label="gini = 0.0\nsamples = 56\nvalue = [0, 56]", fillcolor="#399de5ff"] ;
475 -> 497 ;
498 [label="spore_print_color <= 0.5\ngini = 0.098\nsamples = 350\nvalue = [18, 332]", fillcolor="#399de5f1"] ;
294 -> 498 ;
499 [label="odor <= 3.5\ngini = 0.066\nsamples = 176\nvalue = [6, 170]", fillcolor="#399de5f6"] ;
498 -> 499 ;
500 [label="gill_color <= 4.0\ngini = 0.219\nsamples = 16\nvalue = [2, 14]", fillcolor="#399de5db"] ;
499 -> 500 ;
501 [label="population <= 4.0\ngini = 0.375\nsamples = 8\nvalue = [2, 6]", fillcolor="#399de5aa"] ;
500 -> 501 ;
502 [label="habitat <= 1.5\ngini = 0.375\nsamples = 4\nvalue = [1, 3]", fillcolor="#399de5aa"] ;
501 -> 502 ;
503 [label="gini = 0.0\nsamples = 2\nvalue = [0, 2]", fillcolor="#399de5ff"] ;
502 -> 503 ;
504 [label="odor <= 0.5\ngini = 0.5\nsamples = 2\nvalue = [1, 1]", fillcolor="#e5813900"] ;
502 -> 504 ;
505 [label="gini = 0.0\nsamples = 1\nvalue = [1, 0]", fillcolor="#e58139ff"] ;
504 -> 505 ;
506 [label="gini = 0.0\nsamples = 1\nvalue = [0, 1]", fillcolor="#399de5ff"] ;
504 -> 506 ;
507 [label="habitat <= 1.5\ngini = 0.375\nsamples = 4\nvalue = [1, 3]", fillcolor="#399de5aa"] ;
501 -> 507 ;
508 [label="odor <= 0.5\ngini = 0.5\nsamples = 2\nvalue = [1, 1]", fillcolor="#e5813900"] ;
507 -> 508 ;
509 [label="gini = 0.0\nsamples = 1\nvalue = [0, 1]", fillcolor="#399de5ff"] ;
508 -> 509 ;
510 [label="gini = 0.0\nsamples = 1\nvalue = [1, 0]", fillcolor="#e58139ff"] ;
508 -> 510 ;
511 [label="gini = 0.0\nsamples = 2\nvalue = [0, 2]", fillcolor="#399de5ff"] ;
507 -> 511 ;
512 [label="gini = 0.0\nsamples = 8\nvalue = [0, 8]", fillcolor="#399de5ff"] ;
500 -> 512 ;
513 [label="cap_color <= 5.0\ngini = 0.049\nsamples = 160\nvalue = [4, 156]", fillcolor="#399de5f8"] ;
499 -> 513 ;
514 [label="gill_color <= 5.0\ngini = 0.097\nsamples = 78\nvalue = [4, 74]", fillcolor="#399de5f1"] ;
513 -> 514 ;
515 [label="gini = 0.0\nsamples = 37\nvalue = [0, 37]", fillcolor="#399de5ff"] ;
514 -> 515 ;
516 [label="population <= 4.5\ngini = 0.176\nsamples = 41\nvalue = [4, 37]", fillcolor="#399de5e3"] ;
514 -> 516 ;
517 [label="stalk_color_above_ring <= 4.0\ngini = 0.083\nsamples = 23\nvalue = [1, 22]", fillcolor="#399de5f3"] ;
516 -> 517 ;
518 [label="cap_surface <= 1.0\ngini = 0.32\nsamples = 5\nvalue = [1, 4]", fillcolor="#399de5bf"] ;
517 -> 518 ;
519 [label="stalk_color_below_ring <= 6.0\ngini = 0.5\nsamples = 2\nvalue = [1, 1]", fillcolor="#e5813900"] ;
518 -> 519 ;
520 [label="gini = 0.0\nsamples = 1\nvalue = [0, 1]", fillcolor="#399de5ff"] ;
519 -> 520 ;
521 [label="gini = 0.0\nsamples = 1\nvalue = [1, 0]", fillcolor="#e58139ff"] ;
519 -> 521 ;
522 [label="gini = 0.0\nsamples = 3\nvalue = [0, 3]", fillcolor="#399de5ff"] ;
518 -> 522 ;
523 [label="gini = 0.0\nsamples = 18\nvalue = [0, 18]", fillcolor="#399de5ff"] ;
517 -> 523 ;
524 [label="stalk_color_below_ring <= 4.0\ngini = 0.278\nsamples = 18\nvalue = [3, 15]", fillcolor="#399de5cc"] ;
516 -> 524 ;
525 [label="cap_surface <= 1.0\ngini = 0.444\nsamples = 6\nvalue = [2, 4]", fillcolor="#399de57f"] ;
524 -> 525 ;
526 [label="gini = 0.0\nsamples = 3\nvalue = [0, 3]", fillcolor="#399de5ff"] ;
525 -> 526 ;
527 [label="stalk_color_above_ring <= 4.0\ngini = 0.444\nsamples = 3\nvalue = [2, 1]", fillcolor="#e581397f"] ;
525 -> 527 ;
528 [label="gini = 0.0\nsamples = 1\nvalue = [0, 1]", fillcolor="#399de5ff"] ;
527 -> 528 ;
529 [label="gini = 0.0\nsamples = 2\nvalue = [2, 0]", fillcolor="#e58139ff"] ;
527 -> 529 ;
530 [label="cap_surface <= 1.0\ngini = 0.153\nsamples = 12\nvalue = [1, 11]", fillcolor="#399de5e8"] ;
524 -> 530 ;
531 [label="stalk_color_below_ring <= 6.0\ngini = 0.278\nsamples = 6\nvalue = [1, 5]", fillcolor="#399de5cc"] ;
530 -> 531 ;
532 [label="stalk_color_above_ring <= 4.0\ngini = 0.444\nsamples = 3\nvalue = [1, 2]", fillcolor="#399de57f"] ;
531 -> 532 ;
533 [label="gini = 0.0\nsamples = 1\nvalue = [0, 1]", fillcolor="#399de5ff"] ;
532 -> 533 ;
534 [label="stalk_color_above_ring <= 6.0\ngini = 0.5\nsamples = 2\nvalue = [1, 1]", fillcolor="#e5813900"] ;
532 -> 534 ;
535 [label="gini = 0.0\nsamples = 1\nvalue = [1, 0]", fillcolor="#e58139ff"] ;
534 -> 535 ;
536 [label="gini = 0.0\nsamples = 1\nvalue = [0, 1]", fillcolor="#399de5ff"] ;
534 -> 536 ;
537 [label="gini = 0.0\nsamples = 3\nvalue = [0, 3]", fillcolor="#399de5ff"] ;
531 -> 537 ;
538 [label="gini = 0.0\nsamples = 6\nvalue = [0, 6]", fillcolor="#399de5ff"] ;
530 -> 538 ;
539 [label="gini = 0.0\nsamples = 82\nvalue = [0, 82]", fillcolor="#399de5ff"] ;
513 -> 539 ;
540 [label="population <= 1.5\ngini = 0.128\nsamples = 174\nvalue = [12, 162]", fillcolor="#399de5ec"] ;
498 -> 540 ;
541 [label="stalk_surface_below_ring <= 1.5\ngini = 0.298\nsamples = 22\nvalue = [4, 18]", fillcolor="#399de5c6"] ;
540 -> 541 ;
542 [label="cap_color <= 5.5\ngini = 0.153\nsamples = 12\nvalue = [1, 11]", fillcolor="#399de5e8"] ;
541 -> 542 ;
543 [label="gini = 0.0\nsamples = 6\nvalue = [0, 6]", fillcolor="#399de5ff"] ;
542 -> 543 ;
544 [label="stalk_surface_above_ring <= 1.5\ngini = 0.278\nsamples = 6\nvalue = [1, 5]", fillcolor="#399de5cc"] ;
542 -> 544 ;
545 [label="gill_color <= 2.0\ngini = 0.444\nsamples = 3\nvalue = [1, 2]", fillcolor="#399de57f"] ;
544 -> 545 ;
546 [label="gini = 0.0\nsamples = 1\nvalue = [0, 1]", fillcolor="#399de5ff"] ;
545 -> 546 ;
547 [label="gill_color <= 5.0\ngini = 0.5\nsamples = 2\nvalue = [1, 1]", fillcolor="#e5813900"] ;
545 -> 547 ;
548 [label="gini = 0.0\nsamples = 1\nvalue = [1, 0]", fillcolor="#e58139ff"] ;
547 -> 548 ;
549 [label="gini = 0.0\nsamples = 1\nvalue = [0, 1]", fillcolor="#399de5ff"] ;
547 -> 549 ;
550 [label="gini = 0.0\nsamples = 3\nvalue = [0, 3]", fillcolor="#399de5ff"] ;
544 -> 550 ;
551 [label="stalk_surface_above_ring <= 1.5\ngini = 0.42\nsamples = 10\nvalue = [3, 7]", fillcolor="#399de592"] ;
541 -> 551 ;
552 [label="gill_color <= 2.0\ngini = 0.32\nsamples = 5\nvalue = [1, 4]", fillcolor="#399de5bf"] ;
551 -> 552 ;
553 [label="cap_color <= 5.5\ngini = 0.5\nsamples = 2\nvalue = [1, 1]", fillcolor="#e5813900"] ;
552 -> 553 ;
554 [label="gini = 0.0\nsamples = 1\nvalue = [0, 1]", fillcolor="#399de5ff"] ;
553 -> 554 ;
555 [label="gini = 0.0\nsamples = 1\nvalue = [1, 0]", fillcolor="#e58139ff"] ;
553 -> 555 ;
556 [label="gini = 0.0\nsamples = 3\nvalue = [0, 3]", fillcolor="#399de5ff"] ;
552 -> 556 ;
557 [label="gill_color <= 2.0\ngini = 0.48\nsamples = 5\nvalue = [2, 3]", fillcolor="#399de555"] ;
551 -> 557 ;
558 [label="gini = 0.0\nsamples = 1\nvalue = [0, 1]", fillcolor="#399de5ff"] ;
557 -> 558 ;
559 [label="cap_color <= 5.5\ngini = 0.5\nsamples = 4\nvalue = [2, 2]", fillcolor="#e5813900"] ;
557 -> 559 ;
560 [label="gill_color <= 5.0\ngini = 0.5\nsamples = 2\nvalue = [1, 1]", fillcolor="#e5813900"] ;
559 -> 560 ;
561 [label="gini = 0.0\nsamples = 1\nvalue = [1, 0]", fillcolor="#e58139ff"] ;
560 -> 561 ;
562 [label="gini = 0.0\nsamples = 1\nvalue = [0, 1]", fillcolor="#399de5ff"] ;
560 -> 562 ;
563 [label="gill_color <= 5.0\ngini = 0.5\nsamples = 2\nvalue = [1, 1]", fillcolor="#e5813900"] ;
559 -> 563 ;
564 [label="gini = 0.0\nsamples = 1\nvalue = [0, 1]", fillcolor="#399de5ff"] ;
563 -> 564 ;
565 [label="gini = 0.0\nsamples = 1\nvalue = [1, 0]", fillcolor="#e58139ff"] ;
563 -> 565 ;
566 [label="stalk_color_below_ring <= 4.0\ngini = 0.1\nsamples = 152\nvalue = [8, 144]", fillcolor="#399de5f1"] ;
540 -> 566 ;
567 [label="stalk_color_above_ring <= 4.0\ngini = 0.172\nsamples = 42\nvalue = [4, 38]", fillcolor="#399de5e4"] ;
566 -> 567 ;
568 [label="cap_color <= 5.0\ngini = 0.219\nsamples = 16\nvalue = [2, 14]", fillcolor="#399de5db"] ;
567 -> 568 ;
569 [label="gill_color <= 4.0\ngini = 0.375\nsamples = 8\nvalue = [2, 6]", fillcolor="#399de5aa"] ;
568 -> 569 ;
570 [label="population <= 4.5\ngini = 0.375\nsamples = 4\nvalue = [1, 3]", fillcolor="#399de5aa"] ;
569 -> 570 ;
571 [label="gini = 0.0\nsamples = 2\nvalue = [0, 2]", fillcolor="#399de5ff"] ;
570 -> 571 ;
572 [label="cap_surface <= 1.0\ngini = 0.5\nsamples = 2\nvalue = [1, 1]", fillcolor="#e5813900"] ;
570 -> 572 ;
573 [label="gini = 0.0\nsamples = 1\nvalue = [0, 1]", fillcolor="#399de5ff"] ;
572 -> 573 ;
574 [label="gini = 0.0\nsamples = 1\nvalue = [1, 0]", fillcolor="#e58139ff"] ;
572 -> 574 ;
575 [label="cap_surface <= 1.0\ngini = 0.375\nsamples = 4\nvalue = [1, 3]", fillcolor="#399de5aa"] ;
569 -> 575 ;
576 [label="population <= 4.5\ngini = 0.5\nsamples = 2\nvalue = [1, 1]", fillcolor="#e5813900"] ;
575 -> 576 ;
577 [label="gini = 0.0\nsamples = 1\nvalue = [1, 0]", fillcolor="#e58139ff"] ;
576 -> 577 ;
578 [label="gini = 0.0\nsamples = 1\nvalue = [0, 1]", fillcolor="#399de5ff"] ;
576 -> 578 ;
579 [label="gini = 0.0\nsamples = 2\nvalue = [0, 2]", fillcolor="#399de5ff"] ;
575 -> 579 ;
580 [label="gini = 0.0\nsamples = 8\nvalue = [0, 8]", fillcolor="#399de5ff"] ;
568 -> 580 ;
581 [label="cap_color <= 5.0\ngini = 0.142\nsamples = 26\nvalue = [2, 24]", fillcolor="#399de5ea"] ;
567 -> 581 ;
582 [label="gini = 0.0\nsamples = 13\nvalue = [0, 13]", fillcolor="#399de5ff"] ;
581 -> 582 ;
583 [label="population <= 4.5\ngini = 0.26\nsamples = 13\nvalue = [2, 11]", fillcolor="#399de5d1"] ;
581 -> 583 ;
584 [label="gill_color <= 4.0\ngini = 0.278\nsamples = 6\nvalue = [1, 5]", fillcolor="#399de5cc"] ;
583 -> 584 ;
585 [label="stalk_color_above_ring <= 6.0\ngini = 0.444\nsamples = 3\nvalue = [1, 2]", fillcolor="#399de57f"] ;
584 -> 585 ;
586 [label="cap_surface <= 1.0\ngini = 0.5\nsamples = 2\nvalue = [1, 1]", fillcolor="#e5813900"] ;
585 -> 586 ;
587 [label="gini = 0.0\nsamples = 1\nvalue = [0, 1]", fillcolor="#399de5ff"] ;
586 -> 587 ;
588 [label="gini = 0.0\nsamples = 1\nvalue = [1, 0]", fillcolor="#e58139ff"] ;
586 -> 588 ;
589 [label="gini = 0.0\nsamples = 1\nvalue = [0, 1]", fillcolor="#399de5ff"] ;
585 -> 589 ;
590 [label="gini = 0.0\nsamples = 3\nvalue = [0, 3]", fillcolor="#399de5ff"] ;
584 -> 590 ;
591 [label="cap_surface <= 1.0\ngini = 0.245\nsamples = 7\nvalue = [1, 6]", fillcolor="#399de5d4"] ;
583 -> 591 ;
592 [label="gill_color <= 4.0\ngini = 0.444\nsamples = 3\nvalue = [1, 2]", fillcolor="#399de57f"] ;
591 -> 592 ;
593 [label="gini = 0.0\nsamples = 2\nvalue = [0, 2]", fillcolor="#399de5ff"] ;
592 -> 593 ;
594 [label="gini = 0.0\nsamples = 1\nvalue = [1, 0]", fillcolor="#e58139ff"] ;
592 -> 594 ;
595 [label="gini = 0.0\nsamples = 4\nvalue = [0, 4]", fillcolor="#399de5ff"] ;
591 -> 595 ;
596 [label="odor <= 0.5\ngini = 0.07\nsamples = 110\nvalue = [4, 106]", fillcolor="#399de5f5"] ;
566 -> 596 ;
597 [label="habitat <= 1.5\ngini = 0.245\nsamples = 7\nvalue = [1, 6]", fillcolor="#399de5d4"] ;
596 -> 597 ;
598 [label="gini = 0.0\nsamples = 4\nvalue = [0, 4]", fillcolor="#399de5ff"] ;
597 -> 598 ;
599 [label="gill_color <= 4.0\ngini = 0.444\nsamples = 3\nvalue = [1, 2]", fillcolor="#399de57f"] ;
597 -> 599 ;
600 [label="gini = 0.0\nsamples = 2\nvalue = [0, 2]", fillcolor="#399de5ff"] ;
599 -> 600 ;
601 [label="gini = 0.0\nsamples = 1\nvalue = [1, 0]", fillcolor="#e58139ff"] ;
599 -> 601 ;
602 [label="cap_color <= 5.0\ngini = 0.057\nsamples = 103\nvalue = [3, 100]", fillcolor="#399de5f7"] ;
596 -> 602 ;
603 [label="cap_surface <= 1.0\ngini = 0.111\nsamples = 51\nvalue = [3, 48]", fillcolor="#399de5ef"] ;
602 -> 603 ;
604 [label="population <= 4.5\ngini = 0.175\nsamples = 31\nvalue = [3, 28]", fillcolor="#399de5e4"] ;
603 -> 604 ;
605 [label="stalk_surface_above_ring <= 1.5\ngini = 0.091\nsamples = 21\nvalue = [1, 20]", fillcolor="#399de5f2"] ;
604 -> 605 ;
606 [label="gill_color <= 5.0\ngini = 0.278\nsamples = 6\nvalue = [1, 5]", fillcolor="#399de5cc"] ;
605 -> 606 ;
607 [label="gini = 0.0\nsamples = 4\nvalue = [0, 4]", fillcolor="#399de5ff"] ;
606 -> 607 ;
608 [label="stalk_surface_below_ring <= 1.5\ngini = 0.5\nsamples = 2\nvalue = [1, 1]", fillcolor="#e5813900"] ;
606 -> 608 ;
609 [label="gini = 0.0\nsamples = 1\nvalue = [0, 1]", fillcolor="#399de5ff"] ;
608 -> 609 ;
610 [label="gini = 0.0\nsamples = 1\nvalue = [1, 0]", fillcolor="#e58139ff"] ;
608 -> 610 ;
611 [label="gini = 0.0\nsamples = 15\nvalue = [0, 15]", fillcolor="#399de5ff"] ;
605 -> 611 ;
612 [label="stalk_color_above_ring <= 6.0\ngini = 0.32\nsamples = 10\nvalue = [2, 8]", fillcolor="#399de5bf"] ;
604 -> 612 ;
613 [label="stalk_color_above_ring <= 4.0\ngini = 0.245\nsamples = 7\nvalue = [1, 6]", fillcolor="#399de5d4"] ;
612 -> 613 ;
614 [label="gill_color <= 4.0\ngini = 0.375\nsamples = 4\nvalue = [1, 3]", fillcolor="#399de5aa"] ;
613 -> 614 ;
615 [label="gini = 0.0\nsamples = 2\nvalue = [0, 2]", fillcolor="#399de5ff"] ;
614 -> 615 ;
616 [label="stalk_color_below_ring <= 6.0\ngini = 0.5\nsamples = 2\nvalue = [1, 1]", fillcolor="#e5813900"] ;
614 -> 616 ;
617 [label="gini = 0.0\nsamples = 1\nvalue = [0, 1]", fillcolor="#399de5ff"] ;
616 -> 617 ;
618 [label="gini = 0.0\nsamples = 1\nvalue = [1, 0]", fillcolor="#e58139ff"] ;
616 -> 618 ;
619 [label="gini = 0.0\nsamples = 3\nvalue = [0, 3]", fillcolor="#399de5ff"] ;
613 -> 619 ;
620 [label="gill_color <= 4.0\ngini = 0.444\nsamples = 3\nvalue = [1, 2]", fillcolor="#399de57f"] ;
612 -> 620 ;
621 [label="gini = 0.0\nsamples = 1\nvalue = [1, 0]", fillcolor="#e58139ff"] ;
620 -> 621 ;
622 [label="gini = 0.0\nsamples = 2\nvalue = [0, 2]", fillcolor="#399de5ff"] ;
620 -> 622 ;
623 [label="gini = 0.0\nsamples = 20\nvalue = [0, 20]", fillcolor="#399de5ff"] ;
603 -> 623 ;
624 [label="gini = 0.0\nsamples = 52\nvalue = [0, 52]", fillcolor="#399de5ff"] ;
602 -> 624 ;
625 [label="cap_shape <= 1.0\ngini = 0.187\nsamples = 365\nvalue = [38, 327]", fillcolor="#399de5e1"] ;
89 -> 625 ;
626 [label="habitat <= 0.5\ngini = 0.126\nsamples = 59\nvalue = [4, 55]", fillcolor="#399de5ec"] ;
625 -> 626 ;
627 [label="spore_print_color <= 0.5\ngini = 0.204\nsamples = 26\nvalue = [3, 23]", fillcolor="#399de5de"] ;
626 -> 627 ;
628 [label="gini = 0.0\nsamples = 13\nvalue = [0, 13]", fillcolor="#399de5ff"] ;
627 -> 628 ;
629 [label="odor <= 0.5\ngini = 0.355\nsamples = 13\nvalue = [3, 10]", fillcolor="#399de5b3"] ;
627 -> 629 ;
630 [label="cap_color <= 8.5\ngini = 0.444\nsamples = 6\nvalue = [2, 4]", fillcolor="#399de57f"] ;
629 -> 630 ;
631 [label="gill_color <= 2.5\ngini = 0.444\nsamples = 3\nvalue = [2, 1]", fillcolor="#e581397f"] ;
630 -> 631 ;
632 [label="gini = 0.0\nsamples = 1\nvalue = [1, 0]", fillcolor="#e58139ff"] ;
631 -> 632 ;
633 [label="population <= 2.5\ngini = 0.5\nsamples = 2\nvalue = [1, 1]", fillcolor="#e5813900"] ;
631 -> 633 ;
634 [label="gini = 0.0\nsamples = 1\nvalue = [0, 1]", fillcolor="#399de5ff"] ;
633 -> 634 ;
635 [label="gini = 0.0\nsamples = 1\nvalue = [1, 0]", fillcolor="#e58139ff"] ;
633 -> 635 ;
636 [label="gini = 0.0\nsamples = 3\nvalue = [0, 3]", fillcolor="#399de5ff"] ;
630 -> 636 ;
637 [label="cap_color <= 8.5\ngini = 0.245\nsamples = 7\nvalue = [1, 6]", fillcolor="#399de5d4"] ;
629 -> 637 ;
638 [label="gini = 0.0\nsamples = 3\nvalue = [0, 3]", fillcolor="#399de5ff"] ;
637 -> 638 ;
639 [label="gill_color <= 2.5\ngini = 0.375\nsamples = 4\nvalue = [1, 3]", fillcolor="#399de5aa"] ;
637 -> 639 ;
640 [label="population <= 2.5\ngini = 0.5\nsamples = 2\nvalue = [1, 1]", fillcolor="#e5813900"] ;
639 -> 640 ;
641 [label="gini = 0.0\nsamples = 1\nvalue = [0, 1]", fillcolor="#399de5ff"] ;
640 -> 641 ;
642 [label="gini = 0.0\nsamples = 1\nvalue = [1, 0]", fillcolor="#e58139ff"] ;
640 -> 642 ;
643 [label="gini = 0.0\nsamples = 2\nvalue = [0, 2]", fillcolor="#399de5ff"] ;
639 -> 643 ;
644 [label="spore_print_color <= 0.5\ngini = 0.059\nsamples = 33\nvalue = [1, 32]", fillcolor="#399de5f7"] ;
626 -> 644 ;
645 [label="population <= 2.5\ngini = 0.133\nsamples = 14\nvalue = [1, 13]", fillcolor="#399de5eb"] ;
644 -> 645 ;
646 [label="gini = 0.0\nsamples = 8\nvalue = [0, 8]", fillcolor="#399de5ff"] ;
645 -> 646 ;
647 [label="gill_color <= 2.5\ngini = 0.278\nsamples = 6\nvalue = [1, 5]", fillcolor="#399de5cc"] ;
645 -> 647 ;
648 [label="gini = 0.0\nsamples = 3\nvalue = [0, 3]", fillcolor="#399de5ff"] ;
647 -> 648 ;
649 [label="odor <= 0.5\ngini = 0.444\nsamples = 3\nvalue = [1, 2]", fillcolor="#399de57f"] ;
647 -> 649 ;
650 [label="gini = 0.0\nsamples = 1\nvalue = [0, 1]", fillcolor="#399de5ff"] ;
649 -> 650 ;
651 [label="cap_color <= 8.5\ngini = 0.5\nsamples = 2\nvalue = [1, 1]", fillcolor="#e5813900"] ;
649 -> 651 ;
652 [label="gini = 0.0\nsamples = 1\nvalue = [0, 1]", fillcolor="#399de5ff"] ;
651 -> 652 ;
653 [label="gini = 0.0\nsamples = 1\nvalue = [1, 0]", fillcolor="#e58139ff"] ;
651 -> 653 ;
654 [label="gini = 0.0\nsamples = 19\nvalue = [0, 19]", fillcolor="#399de5ff"] ;
644 -> 654 ;
655 [label="habitat <= 0.5\ngini = 0.198\nsamples = 306\nvalue = [34, 272]", fillcolor="#399de5df"] ;
625 -> 655 ;
656 [label="gill_color <= 2.0\ngini = 0.183\nsamples = 265\nvalue = [27, 238]", fillcolor="#399de5e2"] ;
655 -> 656 ;
657 [label="population <= 2.5\ngini = 0.247\nsamples = 90\nvalue = [13, 77]", fillcolor="#399de5d4"] ;
656 -> 657 ;
658 [label="odor <= 0.5\ngini = 0.325\nsamples = 44\nvalue = [9, 35]", fillcolor="#399de5bd"] ;
657 -> 658 ;
659 [label="cap_color <= 8.5\ngini = 0.5\nsamples = 2\nvalue = [1, 1]", fillcolor="#e5813900"] ;
658 -> 659 ;
660 [label="gini = 0.0\nsamples = 1\nvalue = [1, 0]", fillcolor="#e58139ff"] ;
659 -> 660 ;
661 [label="gini = 0.0\nsamples = 1\nvalue = [0, 1]", fillcolor="#399de5ff"] ;
659 -> 661 ;
662 [label="cap_color <= 8.5\ngini = 0.308\nsamples = 42\nvalue = [8, 34]", fillcolor="#399de5c3"] ;
658 -> 662 ;
663 [label="cap_color <= 5.5\ngini = 0.289\nsamples = 40\nvalue = [7, 33]", fillcolor="#399de5c9"] ;
662 -> 663 ;
664 [label="stalk_surface_below_ring <= 1.5\ngini = 0.33\nsamples = 24\nvalue = [5, 19]", fillcolor="#399de5bc"] ;
663 -> 664 ;
665 [label="spore_print_color <= 0.5\ngini = 0.165\nsamples = 11\nvalue = [1, 10]", fillcolor="#399de5e6"] ;
664 -> 665 ;
666 [label="gini = 0.0\nsamples = 6\nvalue = [0, 6]", fillcolor="#399de5ff"] ;
665 -> 666 ;
667 [label="cap_shape <= 2.5\ngini = 0.32\nsamples = 5\nvalue = [1, 4]", fillcolor="#399de5bf"] ;
665 -> 667 ;
668 [label="cap_color <= 1.5\ngini = 0.5\nsamples = 2\nvalue = [1, 1]", fillcolor="#e5813900"] ;
667 -> 668 ;
669 [label="gini = 0.0\nsamples = 1\nvalue = [0, 1]", fillcolor="#399de5ff"] ;
668 -> 669 ;
670 [label="gini = 0.0\nsamples = 1\nvalue = [1, 0]", fillcolor="#e58139ff"] ;
668 -> 670 ;
671 [label="gini = 0.0\nsamples = 3\nvalue = [0, 3]", fillcolor="#399de5ff"] ;
667 -> 671 ;
672 [label="stalk_surface_above_ring <= 1.5\ngini = 0.426\nsamples = 13\nvalue = [4, 9]", fillcolor="#399de58e"] ;
664 -> 672 ;
673 [label="spore_print_color <= 0.5\ngini = 0.278\nsamples = 6\nvalue = [1, 5]", fillcolor="#399de5cc"] ;
672 -> 673 ;
674 [label="gini = 0.0\nsamples = 4\nvalue = [0, 4]", fillcolor="#399de5ff"] ;
673 -> 674 ;
675 [label="cap_shape <= 2.5\ngini = 0.5\nsamples = 2\nvalue = [1, 1]", fillcolor="#e5813900"] ;
673 -> 675 ;
676 [label="gini = 0.0\nsamples = 1\nvalue = [1, 0]", fillcolor="#e58139ff"] ;
675 -> 676 ;
677 [label="gini = 0.0\nsamples = 1\nvalue = [0, 1]", fillcolor="#399de5ff"] ;
675 -> 677 ;
678 [label="cap_shape <= 2.5\ngini = 0.49\nsamples = 7\nvalue = [3, 4]", fillcolor="#399de540"] ;
672 -> 678 ;
679 [label="spore_print_color <= 0.5\ngini = 0.375\nsamples = 4\nvalue = [1, 3]", fillcolor="#399de5aa"] ;
678 -> 679 ;
680 [label="cap_color <= 1.5\ngini = 0.5\nsamples = 2\nvalue = [1, 1]", fillcolor="#e5813900"] ;
679 -> 680 ;
681 [label="gini = 0.0\nsamples = 1\nvalue = [0, 1]", fillcolor="#399de5ff"] ;
680 -> 681 ;
682 [label="gini = 0.0\nsamples = 1\nvalue = [1, 0]", fillcolor="#e58139ff"] ;
680 -> 682 ;
683 [label="gini = 0.0\nsamples = 2\nvalue = [0, 2]", fillcolor="#399de5ff"] ;
679 -> 683 ;
684 [label="cap_color <= 1.5\ngini = 0.444\nsamples = 3\nvalue = [2, 1]", fillcolor="#e581397f"] ;
678 -> 684 ;
685 [label="gini = 0.0\nsamples = 2\nvalue = [2, 0]", fillcolor="#e58139ff"] ;
684 -> 685 ;
686 [label="gini = 0.0\nsamples = 1\nvalue = [0, 1]", fillcolor="#399de5ff"] ;
684 -> 686 ;
687 [label="stalk_surface_above_ring <= 1.5\ngini = 0.219\nsamples = 16\nvalue = [2, 14]", fillcolor="#399de5db"] ;
663 -> 687 ;
688 [label="spore_print_color <= 0.5\ngini = 0.408\nsamples = 7\nvalue = [2, 5]", fillcolor="#399de599"] ;
687 -> 688 ;
689 [label="stalk_surface_below_ring <= 1.5\ngini = 0.5\nsamples = 4\nvalue = [2, 2]", fillcolor="#e5813900"] ;
688 -> 689 ;
690 [label="gini = 0.0\nsamples = 2\nvalue = [2, 0]", fillcolor="#e58139ff"] ;
689 -> 690 ;
691 [label="gini = 0.0\nsamples = 2\nvalue = [0, 2]", fillcolor="#399de5ff"] ;
689 -> 691 ;
692 [label="gini = 0.0\nsamples = 3\nvalue = [0, 3]", fillcolor="#399de5ff"] ;
688 -> 692 ;
693 [label="gini = 0.0\nsamples = 9\nvalue = [0, 9]", fillcolor="#399de5ff"] ;
687 -> 693 ;
694 [label="spore_print_color <= 0.5\ngini = 0.5\nsamples = 2\nvalue = [1, 1]", fillcolor="#e5813900"] ;
662 -> 694 ;
695 [label="gini = 0.0\nsamples = 1\nvalue = [1, 0]", fillcolor="#e58139ff"] ;
694 -> 695 ;
696 [label="gini = 0.0\nsamples = 1\nvalue = [0, 1]", fillcolor="#399de5ff"] ;
694 -> 696 ;
697 [label="cap_shape <= 2.5\ngini = 0.159\nsamples = 46\nvalue = [4, 42]", fillcolor="#399de5e7"] ;
657 -> 697 ;
698 [label="stalk_surface_below_ring <= 1.5\ngini = 0.071\nsamples = 27\nvalue = [1, 26]", fillcolor="#399de5f5"] ;
697 -> 698 ;
699 [label="stalk_surface_above_ring <= 1.5\ngini = 0.18\nsamples = 10\nvalue = [1, 9]", fillcolor="#399de5e3"] ;
698 -> 699 ;
700 [label="gini = 0.0\nsamples = 5\nvalue = [0, 5]", fillcolor="#399de5ff"] ;
699 -> 700 ;
701 [label="cap_color <= 1.5\ngini = 0.32\nsamples = 5\nvalue = [1, 4]", fillcolor="#399de5bf"] ;
699 -> 701 ;
702 [label="gini = 0.0\nsamples = 2\nvalue = [0, 2]", fillcolor="#399de5ff"] ;
701 -> 702 ;
703 [label="cap_color <= 5.5\ngini = 0.444\nsamples = 3\nvalue = [1, 2]", fillcolor="#399de57f"] ;
701 -> 703 ;
704 [label="spore_print_color <= 0.5\ngini = 0.5\nsamples = 2\nvalue = [1, 1]", fillcolor="#e5813900"] ;
703 -> 704 ;
705 [label="gini = 0.0\nsamples = 1\nvalue = [0, 1]", fillcolor="#399de5ff"] ;
704 -> 705 ;
706 [label="gini = 0.0\nsamples = 1\nvalue = [1, 0]", fillcolor="#e58139ff"] ;
704 -> 706 ;
707 [label="gini = 0.0\nsamples = 1\nvalue = [0, 1]", fillcolor="#399de5ff"] ;
703 -> 707 ;
708 [label="gini = 0.0\nsamples = 17\nvalue = [0, 17]", fillcolor="#399de5ff"] ;
698 -> 708 ;
709 [label="spore_print_color <= 0.5\ngini = 0.266\nsamples = 19\nvalue = [3, 16]", fillcolor="#399de5cf"] ;
697 -> 709 ;
710 [label="cap_color <= 5.5\ngini = 0.18\nsamples = 10\nvalue = [1, 9]", fillcolor="#399de5e3"] ;
709 -> 710 ;
711 [label="gini = 0.0\nsamples = 7\nvalue = [0, 7]", fillcolor="#399de5ff"] ;
710 -> 711 ;
712 [label="stalk_surface_below_ring <= 1.5\ngini = 0.444\nsamples = 3\nvalue = [1, 2]", fillcolor="#399de57f"] ;
710 -> 712 ;
713 [label="gini = 0.0\nsamples = 1\nvalue = [1, 0]", fillcolor="#e58139ff"] ;
712 -> 713 ;
714 [label="gini = 0.0\nsamples = 2\nvalue = [0, 2]", fillcolor="#399de5ff"] ;
712 -> 714 ;
715 [label="stalk_surface_below_ring <= 1.5\ngini = 0.346\nsamples = 9\nvalue = [2, 7]", fillcolor="#399de5b6"] ;
709 -> 715 ;
716 [label="gini = 0.0\nsamples = 5\nvalue = [0, 5]", fillcolor="#399de5ff"] ;
715 -> 716 ;
717 [label="stalk_surface_above_ring <= 1.5\ngini = 0.5\nsamples = 4\nvalue = [2, 2]", fillcolor="#e5813900"] ;
715 -> 717 ;
718 [label="gini = 0.0\nsamples = 2\nvalue = [0, 2]", fillcolor="#399de5ff"] ;
717 -> 718 ;
719 [label="gini = 0.0\nsamples = 2\nvalue = [2, 0]", fillcolor="#e58139ff"] ;
717 -> 719 ;
720 [label="cap_color <= 1.5\ngini = 0.147\nsamples = 175\nvalue = [14, 161]", fillcolor="#399de5e9"] ;
656 -> 720 ;
721 [label="cap_shape <= 2.5\ngini = 0.074\nsamples = 52\nvalue = [2, 50]", fillcolor="#399de5f5"] ;
720 -> 721 ;
722 [label="gini = 0.0\nsamples = 27\nvalue = [0, 27]", fillcolor="#399de5ff"] ;
721 -> 722 ;
723 [label="spore_print_color <= 0.5\ngini = 0.147\nsamples = 25\nvalue = [2, 23]", fillcolor="#399de5e9"] ;
721 -> 723 ;
724 [label="stalk_surface_above_ring <= 1.5\ngini = 0.278\nsamples = 12\nvalue = [2, 10]", fillcolor="#399de5cc"] ;
723 -> 724 ;
725 [label="population <= 1.5\ngini = 0.48\nsamples = 5\nvalue = [2, 3]", fillcolor="#399de555"] ;
724 -> 725 ;
726 [label="gini = 0.0\nsamples = 3\nvalue = [0, 3]", fillcolor="#399de5ff"] ;
725 -> 726 ;
727 [label="gini = 0.0\nsamples = 2\nvalue = [2, 0]", fillcolor="#e58139ff"] ;
725 -> 727 ;
728 [label="gini = 0.0\nsamples = 7\nvalue = [0, 7]", fillcolor="#399de5ff"] ;
724 -> 728 ;
729 [label="gini = 0.0\nsamples = 13\nvalue = [0, 13]", fillcolor="#399de5ff"] ;
723 -> 729 ;
730 [label="gill_color <= 5.5\ngini = 0.176\nsamples = 123\nvalue = [12, 111]", fillcolor="#399de5e3"] ;
720 -> 730 ;
731 [label="spore_print_color <= 0.5\ngini = 0.112\nsamples = 67\nvalue = [4, 63]", fillcolor="#399de5ef"] ;
730 -> 731 ;
732 [label="odor <= 0.5\ngini = 0.061\nsamples = 32\nvalue = [1, 31]", fillcolor="#399de5f7"] ;
731 -> 732 ;
733 [label="cap_color <= 8.5\ngini = 0.375\nsamples = 4\nvalue = [1, 3]", fillcolor="#399de5aa"] ;
732 -> 733 ;
734 [label="population <= 2.5\ngini = 0.5\nsamples = 2\nvalue = [1, 1]", fillcolor="#e5813900"] ;
733 -> 734 ;
735 [label="gini = 0.0\nsamples = 1\nvalue = [1, 0]", fillcolor="#e58139ff"] ;
734 -> 735 ;
736 [label="gini = 0.0\nsamples = 1\nvalue = [0, 1]", fillcolor="#399de5ff"] ;
734 -> 736 ;
737 [label="gini = 0.0\nsamples = 2\nvalue = [0, 2]", fillcolor="#399de5ff"] ;
733 -> 737 ;
738 [label="gini = 0.0\nsamples = 28\nvalue = [0, 28]", fillcolor="#399de5ff"] ;
732 -> 738 ;
739 [label="stalk_surface_below_ring <= 1.5\ngini = 0.157\nsamples = 35\nvalue = [3, 32]", fillcolor="#399de5e7"] ;
731 -> 739 ;
740 [label="cap_color <= 5.5\ngini = 0.245\nsamples = 14\nvalue = [2, 12]", fillcolor="#399de5d4"] ;
739 -> 740 ;
741 [label="gini = 0.0\nsamples = 8\nvalue = [0, 8]", fillcolor="#399de5ff"] ;
740 -> 741 ;
742 [label="stalk_surface_above_ring <= 1.5\ngini = 0.444\nsamples = 6\nvalue = [2, 4]", fillcolor="#399de57f"] ;
740 -> 742 ;
743 [label="gini = 0.0\nsamples = 3\nvalue = [0, 3]", fillcolor="#399de5ff"] ;
742 -> 743 ;
744 [label="population <= 1.5\ngini = 0.444\nsamples = 3\nvalue = [2, 1]", fillcolor="#e581397f"] ;
742 -> 744 ;
745 [label="gini = 0.0\nsamples = 1\nvalue = [1, 0]", fillcolor="#e58139ff"] ;
744 -> 745 ;
746 [label="cap_shape <= 2.5\ngini = 0.5\nsamples = 2\nvalue = [1, 1]", fillcolor="#e5813900"] ;
744 -> 746 ;
747 [label="gini = 0.0\nsamples = 1\nvalue = [1, 0]", fillcolor="#e58139ff"] ;
746 -> 747 ;
748 [label="gini = 0.0\nsamples = 1\nvalue = [0, 1]", fillcolor="#399de5ff"] ;
746 -> 748 ;
749 [label="cap_color <= 5.5\ngini = 0.091\nsamples = 21\nvalue = [1, 20]", fillcolor="#399de5f2"] ;
739 -> 749 ;
750 [label="population <= 1.5\ngini = 0.278\nsamples = 6\nvalue = [1, 5]", fillcolor="#399de5cc"] ;
749 -> 750 ;
751 [label="gini = 0.0\nsamples = 4\nvalue = [0, 4]", fillcolor="#399de5ff"] ;
750 -> 751 ;
752 [label="stalk_surface_above_ring <= 1.5\ngini = 0.5\nsamples = 2\nvalue = [1, 1]", fillcolor="#e5813900"] ;
750 -> 752 ;
753 [label="gini = 0.0\nsamples = 1\nvalue = [1, 0]", fillcolor="#e58139ff"] ;
752 -> 753 ;
754 [label="gini = 0.0\nsamples = 1\nvalue = [0, 1]", fillcolor="#399de5ff"] ;
752 -> 754 ;
755 [label="gini = 0.0\nsamples = 15\nvalue = [0, 15]", fillcolor="#399de5ff"] ;
749 -> 755 ;
756 [label="cap_shape <= 2.5\ngini = 0.245\nsamples = 56\nvalue = [8, 48]", fillcolor="#399de5d4"] ;
730 -> 756 ;
757 [label="population <= 1.5\ngini = 0.358\nsamples = 30\nvalue = [7, 23]", fillcolor="#399de5b1"] ;
756 -> 757 ;
758 [label="stalk_surface_above_ring <= 1.5\ngini = 0.444\nsamples = 15\nvalue = [5, 10]", fillcolor="#399de57f"] ;
757 -> 758 ;
759 [label="spore_print_color <= 0.5\ngini = 0.245\nsamples = 7\nvalue = [1, 6]", fillcolor="#399de5d4"] ;
758 -> 759 ;
760 [label="stalk_surface_below_ring <= 1.5\ngini = 0.444\nsamples = 3\nvalue = [1, 2]", fillcolor="#399de57f"] ;
759 -> 760 ;
761 [label="gini = 0.0\nsamples = 2\nvalue = [0, 2]", fillcolor="#399de5ff"] ;
760 -> 761 ;
762 [label="gini = 0.0\nsamples = 1\nvalue = [1, 0]", fillcolor="#e58139ff"] ;
760 -> 762 ;
763 [label="gini = 0.0\nsamples = 4\nvalue = [0, 4]", fillcolor="#399de5ff"] ;
759 -> 763 ;
764 [label="stalk_surface_below_ring <= 1.5\ngini = 0.5\nsamples = 8\nvalue = [4, 4]", fillcolor="#e5813900"] ;
758 -> 764 ;
765 [label="cap_color <= 5.5\ngini = 0.375\nsamples = 4\nvalue = [3, 1]", fillcolor="#e58139aa"] ;
764 -> 765 ;
766 [label="spore_print_color <= 0.5\ngini = 0.5\nsamples = 2\nvalue = [1, 1]", fillcolor="#e5813900"] ;
765 -> 766 ;
767 [label="gini = 0.0\nsamples = 1\nvalue = [1, 0]", fillcolor="#e58139ff"] ;
766 -> 767 ;
768 [label="gini = 0.0\nsamples = 1\nvalue = [0, 1]", fillcolor="#399de5ff"] ;
766 -> 768 ;
769 [label="gini = 0.0\nsamples = 2\nvalue = [2, 0]", fillcolor="#e58139ff"] ;
765 -> 769 ;
770 [label="cap_color <= 5.5\ngini = 0.375\nsamples = 4\nvalue = [1, 3]", fillcolor="#399de5aa"] ;
764 -> 770 ;
771 [label="gini = 0.0\nsamples = 2\nvalue = [0, 2]", fillcolor="#399de5ff"] ;
770 -> 771 ;
772 [label="spore_print_color <= 0.5\ngini = 0.5\nsamples = 2\nvalue = [1, 1]", fillcolor="#e5813900"] ;
770 -> 772 ;
773 [label="gini = 0.0\nsamples = 1\nvalue = [0, 1]", fillcolor="#399de5ff"] ;
772 -> 773 ;
774 [label="gini = 0.0\nsamples = 1\nvalue = [1, 0]", fillcolor="#e58139ff"] ;
772 -> 774 ;
775 [label="stalk_surface_above_ring <= 1.5\ngini = 0.231\nsamples = 15\nvalue = [2, 13]", fillcolor="#399de5d8"] ;
757 -> 775 ;
776 [label="cap_color <= 5.5\ngini = 0.408\nsamples = 7\nvalue = [2, 5]", fillcolor="#399de599"] ;
775 -> 776 ;
777 [label="stalk_surface_below_ring <= 1.5\ngini = 0.5\nsamples = 4\nvalue = [2, 2]", fillcolor="#e5813900"] ;
776 -> 777 ;
778 [label="spore_print_color <= 0.5\ngini = 0.5\nsamples = 2\nvalue = [1, 1]", fillcolor="#e5813900"] ;
777 -> 778 ;
779 [label="gini = 0.0\nsamples = 1\nvalue = [1, 0]", fillcolor="#e58139ff"] ;
778 -> 779 ;
780 [label="gini = 0.0\nsamples = 1\nvalue = [0, 1]", fillcolor="#399de5ff"] ;
778 -> 780 ;
781 [label="spore_print_color <= 0.5\ngini = 0.5\nsamples = 2\nvalue = [1, 1]", fillcolor="#e5813900"] ;
777 -> 781 ;
782 [label="gini = 0.0\nsamples = 1\nvalue = [0, 1]", fillcolor="#399de5ff"] ;
781 -> 782 ;
783 [label="gini = 0.0\nsamples = 1\nvalue = [1, 0]", fillcolor="#e58139ff"] ;
781 -> 783 ;
784 [label="gini = 0.0\nsamples = 3\nvalue = [0, 3]", fillcolor="#399de5ff"] ;
776 -> 784 ;
785 [label="gini = 0.0\nsamples = 8\nvalue = [0, 8]", fillcolor="#399de5ff"] ;
775 -> 785 ;
786 [label="stalk_surface_below_ring <= 1.5\ngini = 0.074\nsamples = 26\nvalue = [1, 25]", fillcolor="#399de5f5"] ;
756 -> 786 ;
787 [label="cap_color <= 5.5\ngini = 0.153\nsamples = 12\nvalue = [1, 11]", fillcolor="#399de5e8"] ;
786 -> 787 ;
788 [label="gini = 0.0\nsamples = 6\nvalue = [0, 6]", fillcolor="#399de5ff"] ;
787 -> 788 ;
789 [label="stalk_surface_above_ring <= 1.5\ngini = 0.278\nsamples = 6\nvalue = [1, 5]", fillcolor="#399de5cc"] ;
787 -> 789 ;
790 [label="gini = 0.0\nsamples = 3\nvalue = [0, 3]", fillcolor="#399de5ff"] ;
789 -> 790 ;
791 [label="population <= 1.5\ngini = 0.444\nsamples = 3\nvalue = [1, 2]", fillcolor="#399de57f"] ;
789 -> 791 ;
792 [label="gini = 0.0\nsamples = 1\nvalue = [0, 1]", fillcolor="#399de5ff"] ;
791 -> 792 ;
793 [label="spore_print_color <= 0.5\ngini = 0.5\nsamples = 2\nvalue = [1, 1]", fillcolor="#e5813900"] ;
791 -> 793 ;
794 [label="gini = 0.0\nsamples = 1\nvalue = [0, 1]", fillcolor="#399de5ff"] ;
793 -> 794 ;
795 [label="gini = 0.0\nsamples = 1\nvalue = [1, 0]", fillcolor="#e58139ff"] ;
793 -> 795 ;
796 [label="gini = 0.0\nsamples = 14\nvalue = [0, 14]", fillcolor="#399de5ff"] ;
786 -> 796 ;
797 [label="gill_color <= 2.5\ngini = 0.283\nsamples = 41\nvalue = [7, 34]", fillcolor="#399de5ca"] ;
655 -> 797 ;
798 [label="veil_color <= 0.5\ngini = 0.159\nsamples = 23\nvalue = [2, 21]", fillcolor="#399de5e7"] ;
797 -> 798 ;
799 [label="population <= 2.5\ngini = 0.32\nsamples = 5\nvalue = [1, 4]", fillcolor="#399de5bf"] ;
798 -> 799 ;
800 [label="cap_shape <= 2.5\ngini = 0.5\nsamples = 2\nvalue = [1, 1]", fillcolor="#e5813900"] ;
799 -> 800 ;
801 [label="gini = 0.0\nsamples = 1\nvalue = [1, 0]", fillcolor="#e58139ff"] ;
800 -> 801 ;
802 [label="gini = 0.0\nsamples = 1\nvalue = [0, 1]", fillcolor="#399de5ff"] ;
800 -> 802 ;
803 [label="gini = 0.0\nsamples = 3\nvalue = [0, 3]", fillcolor="#399de5ff"] ;
799 -> 803 ;
804 [label="odor <= 0.5\ngini = 0.105\nsamples = 18\nvalue = [1, 17]", fillcolor="#399de5f0"] ;
798 -> 804 ;
805 [label="population <= 2.5\ngini = 0.245\nsamples = 7\nvalue = [1, 6]", fillcolor="#399de5d4"] ;
804 -> 805 ;
806 [label="gini = 0.0\nsamples = 4\nvalue = [0, 4]", fillcolor="#399de5ff"] ;
805 -> 806 ;
807 [label="cap_color <= 8.5\ngini = 0.444\nsamples = 3\nvalue = [1, 2]", fillcolor="#399de57f"] ;
805 -> 807 ;
808 [label="gini = 0.0\nsamples = 1\nvalue = [1, 0]", fillcolor="#e58139ff"] ;
807 -> 808 ;
809 [label="gini = 0.0\nsamples = 2\nvalue = [0, 2]", fillcolor="#399de5ff"] ;
807 -> 809 ;
810 [label="gini = 0.0\nsamples = 11\nvalue = [0, 11]", fillcolor="#399de5ff"] ;
804 -> 810 ;
811 [label="spore_print_color <= 0.5\ngini = 0.401\nsamples = 18\nvalue = [5, 13]", fillcolor="#399de59d"] ;
797 -> 811 ;
812 [label="odor <= 0.5\ngini = 0.5\nsamples = 6\nvalue = [3, 3]", fillcolor="#e5813900"] ;
811 -> 812 ;
813 [label="cap_color <= 8.5\ngini = 0.375\nsamples = 4\nvalue = [1, 3]", fillcolor="#399de5aa"] ;
812 -> 813 ;
814 [label="population <= 2.5\ngini = 0.5\nsamples = 2\nvalue = [1, 1]", fillcolor="#e5813900"] ;
813 -> 814 ;
815 [label="gini = 0.0\nsamples = 1\nvalue = [1, 0]", fillcolor="#e58139ff"] ;
814 -> 815 ;
816 [label="gini = 0.0\nsamples = 1\nvalue = [0, 1]", fillcolor="#399de5ff"] ;
814 -> 816 ;
817 [label="gini = 0.0\nsamples = 2\nvalue = [0, 2]", fillcolor="#399de5ff"] ;
813 -> 817 ;
818 [label="gini = 0.0\nsamples = 2\nvalue = [2, 0]", fillcolor="#e58139ff"] ;
812 -> 818 ;
819 [label="population <= 3.5\ngini = 0.278\nsamples = 12\nvalue = [2, 10]", fillcolor="#399de5cc"] ;
811 -> 819 ;
820 [label="gini = 0.0\nsamples = 7\nvalue = [0, 7]", fillcolor="#399de5ff"] ;
819 -> 820 ;
821 [label="veil_color <= 0.5\ngini = 0.48\nsamples = 5\nvalue = [2, 3]", fillcolor="#399de555"] ;
819 -> 821 ;
822 [label="gini = 0.0\nsamples = 2\nvalue = [0, 2]", fillcolor="#399de5ff"] ;
821 -> 822 ;
823 [label="cap_shape <= 3.5\ngini = 0.444\nsamples = 3\nvalue = [2, 1]", fillcolor="#e581397f"] ;
821 -> 823 ;
824 [label="gini = 0.0\nsamples = 2\nvalue = [2, 0]", fillcolor="#e58139ff"] ;
823 -> 824 ;
825 [label="gini = 0.0\nsamples = 1\nvalue = [0, 1]", fillcolor="#399de5ff"] ;
823 -> 825 ;
826 [label="gini = 0.0\nsamples = 26\nvalue = [0, 26]", fillcolor="#399de5ff"] ;
88 -> 826 ;
827 [label="cap_color <= 5.0\ngini = 0.2\nsamples = 338\nvalue = [38, 300]", fillcolor="#399de5df"] ;
87 -> 827 ;
828 [label="stalk_color_above_ring <= 4.0\ngini = 0.235\nsamples = 221\nvalue = [30, 191]", fillcolor="#399de5d7"] ;
827 -> 828 ;
829 [label="stalk_color_below_ring <= 4.0\ngini = 0.126\nsamples = 74\nvalue = [5, 69]", fillcolor="#399de5ed"] ;
828 -> 829 ;
830 [label="spore_print_color <= 0.5\ngini = 0.071\nsamples = 27\nvalue = [1, 26]", fillcolor="#399de5f5"] ;
829 -> 830 ;
831 [label="cap_shape <= 2.5\ngini = 0.142\nsamples = 13\nvalue = [1, 12]", fillcolor="#399de5ea"] ;
830 -> 831 ;
832 [label="cap_surface <= 1.0\ngini = 0.278\nsamples = 6\nvalue = [1, 5]", fillcolor="#399de5cc"] ;
831 -> 832 ;
833 [label="gini = 0.0\nsamples = 4\nvalue = [0, 4]", fillcolor="#399de5ff"] ;
832 -> 833 ;
834 [label="cap_color <= 1.5\ngini = 0.5\nsamples = 2\nvalue = [1, 1]", fillcolor="#e5813900"] ;
832 -> 834 ;
835 [label="gini = 0.0\nsamples = 1\nvalue = [1, 0]", fillcolor="#e58139ff"] ;
834 -> 835 ;
836 [label="gini = 0.0\nsamples = 1\nvalue = [0, 1]", fillcolor="#399de5ff"] ;
834 -> 836 ;
837 [label="gini = 0.0\nsamples = 7\nvalue = [0, 7]", fillcolor="#399de5ff"] ;
831 -> 837 ;
838 [label="gini = 0.0\nsamples = 14\nvalue = [0, 14]", fillcolor="#399de5ff"] ;
830 -> 838 ;
839 [label="population <= 4.5\ngini = 0.156\nsamples = 47\nvalue = [4, 43]", fillcolor="#399de5e7"] ;
829 -> 839 ;
840 [label="cap_shape <= 2.5\ngini = 0.08\nsamples = 24\nvalue = [1, 23]", fillcolor="#399de5f4"] ;
839 -> 840 ;
841 [label="stalk_color_below_ring <= 6.0\ngini = 0.165\nsamples = 11\nvalue = [1, 10]", fillcolor="#399de5e6"] ;
840 -> 841 ;
842 [label="spore_print_color <= 0.5\ngini = 0.32\nsamples = 5\nvalue = [1, 4]", fillcolor="#399de5bf"] ;
841 -> 842 ;
843 [label="gini = 0.0\nsamples = 3\nvalue = [0, 3]", fillcolor="#399de5ff"] ;
842 -> 843 ;
844 [label="cap_surface <= 1.0\ngini = 0.5\nsamples = 2\nvalue = [1, 1]", fillcolor="#e5813900"] ;
842 -> 844 ;
845 [label="gini = 0.0\nsamples = 1\nvalue = [1, 0]", fillcolor="#e58139ff"] ;
844 -> 845 ;
846 [label="gini = 0.0\nsamples = 1\nvalue = [0, 1]", fillcolor="#399de5ff"] ;
844 -> 846 ;
847 [label="gini = 0.0\nsamples = 6\nvalue = [0, 6]", fillcolor="#399de5ff"] ;
841 -> 847 ;
848 [label="gini = 0.0\nsamples = 13\nvalue = [0, 13]", fillcolor="#399de5ff"] ;
840 -> 848 ;
849 [label="stalk_color_below_ring <= 6.0\ngini = 0.227\nsamples = 23\nvalue = [3, 20]", fillcolor="#399de5d9"] ;
839 -> 849 ;
850 [label="cap_color <= 1.5\ngini = 0.153\nsamples = 12\nvalue = [1, 11]", fillcolor="#399de5e8"] ;
849 -> 850 ;
851 [label="gini = 0.0\nsamples = 7\nvalue = [0, 7]", fillcolor="#399de5ff"] ;
850 -> 851 ;
852 [label="cap_surface <= 1.0\ngini = 0.32\nsamples = 5\nvalue = [1, 4]", fillcolor="#399de5bf"] ;
850 -> 852 ;
853 [label="spore_print_color <= 0.5\ngini = 0.5\nsamples = 2\nvalue = [1, 1]", fillcolor="#e5813900"] ;
852 -> 853 ;
854 [label="gini = 0.0\nsamples = 1\nvalue = [1, 0]", fillcolor="#e58139ff"] ;
853 -> 854 ;
855 [label="gini = 0.0\nsamples = 1\nvalue = [0, 1]", fillcolor="#399de5ff"] ;
853 -> 855 ;
856 [label="gini = 0.0\nsamples = 3\nvalue = [0, 3]", fillcolor="#399de5ff"] ;
852 -> 856 ;
857 [label="cap_color <= 1.5\ngini = 0.298\nsamples = 11\nvalue = [2, 9]", fillcolor="#399de5c6"] ;
849 -> 857 ;
858 [label="cap_surface <= 1.0\ngini = 0.48\nsamples = 5\nvalue = [2, 3]", fillcolor="#399de555"] ;
857 -> 858 ;
859 [label="spore_print_color <= 0.5\ngini = 0.375\nsamples = 4\nvalue = [1, 3]", fillcolor="#399de5aa"] ;
858 -> 859 ;
860 [label="cap_shape <= 2.5\ngini = 0.5\nsamples = 2\nvalue = [1, 1]", fillcolor="#e5813900"] ;
859 -> 860 ;
861 [label="gini = 0.0\nsamples = 1\nvalue = [1, 0]", fillcolor="#e58139ff"] ;
860 -> 861 ;
862 [label="gini = 0.0\nsamples = 1\nvalue = [0, 1]", fillcolor="#399de5ff"] ;
860 -> 862 ;
863 [label="gini = 0.0\nsamples = 2\nvalue = [0, 2]", fillcolor="#399de5ff"] ;
859 -> 863 ;
864 [label="gini = 0.0\nsamples = 1\nvalue = [1, 0]", fillcolor="#e58139ff"] ;
858 -> 864 ;
865 [label="gini = 0.0\nsamples = 6\nvalue = [0, 6]", fillcolor="#399de5ff"] ;
857 -> 865 ;
866 [label="population <= 4.5\ngini = 0.282\nsamples = 147\nvalue = [25, 122]", fillcolor="#399de5cb"] ;
828 -> 866 ;
867 [label="stalk_color_below_ring <= 4.0\ngini = 0.214\nsamples = 74\nvalue = [9, 65]", fillcolor="#399de5dc"] ;
866 -> 867 ;
868 [label="cap_shape <= 2.5\ngini = 0.08\nsamples = 24\nvalue = [1, 23]", fillcolor="#399de5f4"] ;
867 -> 868 ;
869 [label="gini = 0.0\nsamples = 13\nvalue = [0, 13]", fillcolor="#399de5ff"] ;
868 -> 869 ;
870 [label="spore_print_color <= 0.5\ngini = 0.165\nsamples = 11\nvalue = [1, 10]", fillcolor="#399de5e6"] ;
868 -> 870 ;
871 [label="gini = 0.0\nsamples = 6\nvalue = [0, 6]", fillcolor="#399de5ff"] ;
870 -> 871 ;
872 [label="cap_color <= 1.5\ngini = 0.32\nsamples = 5\nvalue = [1, 4]", fillcolor="#399de5bf"] ;
870 -> 872 ;
873 [label="stalk_color_above_ring <= 6.0\ngini = 0.5\nsamples = 2\nvalue = [1, 1]", fillcolor="#e5813900"] ;
872 -> 873 ;
874 [label="gini = 0.0\nsamples = 1\nvalue = [1, 0]", fillcolor="#e58139ff"] ;
873 -> 874 ;
875 [label="gini = 0.0\nsamples = 1\nvalue = [0, 1]", fillcolor="#399de5ff"] ;
873 -> 875 ;
876 [label="gini = 0.0\nsamples = 3\nvalue = [0, 3]", fillcolor="#399de5ff"] ;
872 -> 876 ;
877 [label="stalk_color_below_ring <= 6.0\ngini = 0.269\nsamples = 50\nvalue = [8, 42]", fillcolor="#399de5ce"] ;
867 -> 877 ;
878 [label="spore_print_color <= 0.5\ngini = 0.346\nsamples = 27\nvalue = [6, 21]", fillcolor="#399de5b6"] ;
877 -> 878 ;
879 [label="cap_surface <= 1.0\ngini = 0.426\nsamples = 13\nvalue = [4, 9]", fillcolor="#399de58e"] ;
878 -> 879 ;
880 [label="cap_shape <= 2.5\ngini = 0.49\nsamples = 7\nvalue = [3, 4]", fillcolor="#399de540"] ;
879 -> 880 ;
881 [label="cap_color <= 1.5\ngini = 0.375\nsamples = 4\nvalue = [1, 3]", fillcolor="#399de5aa"] ;
880 -> 881 ;
882 [label="gini = 0.0\nsamples = 2\nvalue = [0, 2]", fillcolor="#399de5ff"] ;
881 -> 882 ;
883 [label="stalk_color_above_ring <= 6.0\ngini = 0.5\nsamples = 2\nvalue = [1, 1]", fillcolor="#e5813900"] ;
881 -> 883 ;
884 [label="gini = 0.0\nsamples = 1\nvalue = [0, 1]", fillcolor="#399de5ff"] ;
883 -> 884 ;
885 [label="gini = 0.0\nsamples = 1\nvalue = [1, 0]", fillcolor="#e58139ff"] ;
883 -> 885 ;
886 [label="stalk_color_above_ring <= 6.0\ngini = 0.444\nsamples = 3\nvalue = [2, 1]", fillcolor="#e581397f"] ;
880 -> 886 ;
887 [label="cap_color <= 1.5\ngini = 0.5\nsamples = 2\nvalue = [1, 1]", fillcolor="#e5813900"] ;
886 -> 887 ;
888 [label="gini = 0.0\nsamples = 1\nvalue = [1, 0]", fillcolor="#e58139ff"] ;
887 -> 888 ;
889 [label="gini = 0.0\nsamples = 1\nvalue = [0, 1]", fillcolor="#399de5ff"] ;
887 -> 889 ;
890 [label="gini = 0.0\nsamples = 1\nvalue = [1, 0]", fillcolor="#e58139ff"] ;
886 -> 890 ;
891 [label="stalk_color_above_ring <= 6.0\ngini = 0.278\nsamples = 6\nvalue = [1, 5]", fillcolor="#399de5cc"] ;
879 -> 891 ;
892 [label="cap_shape <= 2.5\ngini = 0.444\nsamples = 3\nvalue = [1, 2]", fillcolor="#399de57f"] ;
891 -> 892 ;
893 [label="gini = 0.0\nsamples = 1\nvalue = [1, 0]", fillcolor="#e58139ff"] ;
892 -> 893 ;
894 [label="gini = 0.0\nsamples = 2\nvalue = [0, 2]", fillcolor="#399de5ff"] ;
892 -> 894 ;
895 [label="gini = 0.0\nsamples = 3\nvalue = [0, 3]", fillcolor="#399de5ff"] ;
891 -> 895 ;
896 [label="cap_surface <= 1.0\ngini = 0.245\nsamples = 14\nvalue = [2, 12]", fillcolor="#399de5d4"] ;
878 -> 896 ;
897 [label="gini = 0.0\nsamples = 7\nvalue = [0, 7]", fillcolor="#399de5ff"] ;
896 -> 897 ;
898 [label="cap_color <= 1.5\ngini = 0.408\nsamples = 7\nvalue = [2, 5]", fillcolor="#399de599"] ;
896 -> 898 ;
899 [label="cap_shape <= 2.5\ngini = 0.375\nsamples = 4\nvalue = [1, 3]", fillcolor="#399de5aa"] ;
898 -> 899 ;
900 [label="stalk_color_above_ring <= 6.0\ngini = 0.5\nsamples = 2\nvalue = [1, 1]", fillcolor="#e5813900"] ;
899 -> 900 ;
901 [label="gini = 0.0\nsamples = 1\nvalue = [0, 1]", fillcolor="#399de5ff"] ;
900 -> 901 ;
902 [label="gini = 0.0\nsamples = 1\nvalue = [1, 0]", fillcolor="#e58139ff"] ;
900 -> 902 ;
903 [label="gini = 0.0\nsamples = 2\nvalue = [0, 2]", fillcolor="#399de5ff"] ;
899 -> 903 ;
904 [label="cap_shape <= 2.5\ngini = 0.444\nsamples = 3\nvalue = [1, 2]", fillcolor="#399de57f"] ;
898 -> 904 ;
905 [label="gini = 0.0\nsamples = 2\nvalue = [0, 2]", fillcolor="#399de5ff"] ;
904 -> 905 ;
906 [label="gini = 0.0\nsamples = 1\nvalue = [1, 0]", fillcolor="#e58139ff"] ;
904 -> 906 ;
907 [label="cap_surface <= 1.0\ngini = 0.159\nsamples = 23\nvalue = [2, 21]", fillcolor="#399de5e7"] ;
877 -> 907 ;
908 [label="gini = 0.0\nsamples = 13\nvalue = [0, 13]", fillcolor="#399de5ff"] ;
907 -> 908 ;
909 [label="stalk_color_above_ring <= 6.0\ngini = 0.32\nsamples = 10\nvalue = [2, 8]", fillcolor="#399de5bf"] ;
907 -> 909 ;
910 [label="cap_color <= 1.5\ngini = 0.5\nsamples = 4\nvalue = [2, 2]", fillcolor="#e5813900"] ;
909 -> 910 ;
911 [label="gini = 0.0\nsamples = 2\nvalue = [2, 0]", fillcolor="#e58139ff"] ;
910 -> 911 ;
912 [label="gini = 0.0\nsamples = 2\nvalue = [0, 2]", fillcolor="#399de5ff"] ;
910 -> 912 ;
913 [label="gini = 0.0\nsamples = 6\nvalue = [0, 6]", fillcolor="#399de5ff"] ;
909 -> 913 ;
914 [label="stalk_color_below_ring <= 6.0\ngini = 0.342\nsamples = 73\nvalue = [16, 57]", fillcolor="#399de5b7"] ;
866 -> 914 ;
915 [label="cap_surface <= 1.0\ngini = 0.37\nsamples = 49\nvalue = [12, 37]", fillcolor="#399de5ac"] ;
914 -> 915 ;
916 [label="stalk_color_above_ring <= 6.0\ngini = 0.435\nsamples = 25\nvalue = [8, 17]", fillcolor="#399de587"] ;
915 -> 916 ;
917 [label="cap_color <= 1.5\ngini = 0.49\nsamples = 14\nvalue = [6, 8]", fillcolor="#399de540"] ;
916 -> 917 ;
918 [label="spore_print_color <= 0.5\ngini = 0.278\nsamples = 6\nvalue = [1, 5]", fillcolor="#399de5cc"] ;
917 -> 918 ;
919 [label="gini = 0.0\nsamples = 3\nvalue = [0, 3]", fillcolor="#399de5ff"] ;
918 -> 919 ;
920 [label="cap_shape <= 2.5\ngini = 0.444\nsamples = 3\nvalue = [1, 2]", fillcolor="#399de57f"] ;
918 -> 920 ;
921 [label="gini = 0.0\nsamples = 2\nvalue = [0, 2]", fillcolor="#399de5ff"] ;
920 -> 921 ;
922 [label="gini = 0.0\nsamples = 1\nvalue = [1, 0]", fillcolor="#e58139ff"] ;
920 -> 922 ;
923 [label="cap_shape <= 2.5\ngini = 0.469\nsamples = 8\nvalue = [5, 3]", fillcolor="#e5813966"] ;
917 -> 923 ;
924 [label="spore_print_color <= 0.5\ngini = 0.5\nsamples = 4\nvalue = [2, 2]", fillcolor="#e5813900"] ;
923 -> 924 ;
925 [label="stalk_color_below_ring <= 4.0\ngini = 0.5\nsamples = 2\nvalue = [1, 1]", fillcolor="#e5813900"] ;
924 -> 925 ;
926 [label="gini = 0.0\nsamples = 1\nvalue = [0, 1]", fillcolor="#399de5ff"] ;
925 -> 926 ;
927 [label="gini = 0.0\nsamples = 1\nvalue = [1, 0]", fillcolor="#e58139ff"] ;
925 -> 927 ;
928 [label="stalk_color_below_ring <= 4.0\ngini = 0.5\nsamples = 2\nvalue = [1, 1]", fillcolor="#e5813900"] ;
924 -> 928 ;
929 [label="gini = 0.0\nsamples = 1\nvalue = [1, 0]", fillcolor="#e58139ff"] ;
928 -> 929 ;
930 [label="gini = 0.0\nsamples = 1\nvalue = [0, 1]", fillcolor="#399de5ff"] ;
928 -> 930 ;
931 [label="spore_print_color <= 0.5\ngini = 0.375\nsamples = 4\nvalue = [3, 1]", fillcolor="#e58139aa"] ;
923 -> 931 ;
932 [label="gini = 0.0\nsamples = 2\nvalue = [2, 0]", fillcolor="#e58139ff"] ;
931 -> 932 ;
933 [label="stalk_color_below_ring <= 4.0\ngini = 0.5\nsamples = 2\nvalue = [1, 1]", fillcolor="#e5813900"] ;
931 -> 933 ;
934 [label="gini = 0.0\nsamples = 1\nvalue = [0, 1]", fillcolor="#399de5ff"] ;
933 -> 934 ;
935 [label="gini = 0.0\nsamples = 1\nvalue = [1, 0]", fillcolor="#e58139ff"] ;
933 -> 935 ;
936 [label="cap_color <= 1.5\ngini = 0.298\nsamples = 11\nvalue = [2, 9]", fillcolor="#399de5c6"] ;
916 -> 936 ;
937 [label="stalk_color_below_ring <= 4.0\ngini = 0.48\nsamples = 5\nvalue = [2, 3]", fillcolor="#399de555"] ;
936 -> 937 ;
938 [label="spore_print_color <= 0.5\ngini = 0.444\nsamples = 3\nvalue = [2, 1]", fillcolor="#e581397f"] ;
937 -> 938 ;
939 [label="gini = 0.0\nsamples = 1\nvalue = [1, 0]", fillcolor="#e58139ff"] ;
938 -> 939 ;
940 [label="cap_shape <= 2.5\ngini = 0.5\nsamples = 2\nvalue = [1, 1]", fillcolor="#e5813900"] ;
938 -> 940 ;
941 [label="gini = 0.0\nsamples = 1\nvalue = [0, 1]", fillcolor="#399de5ff"] ;
940 -> 941 ;
942 [label="gini = 0.0\nsamples = 1\nvalue = [1, 0]", fillcolor="#e58139ff"] ;
940 -> 942 ;
943 [label="gini = 0.0\nsamples = 2\nvalue = [0, 2]", fillcolor="#399de5ff"] ;
937 -> 943 ;
944 [label="gini = 0.0\nsamples = 6\nvalue = [0, 6]", fillcolor="#399de5ff"] ;
936 -> 944 ;
945 [label="spore_print_color <= 0.5\ngini = 0.278\nsamples = 24\nvalue = [4, 20]", fillcolor="#399de5cc"] ;
915 -> 945 ;
946 [label="stalk_color_above_ring <= 6.0\ngini = 0.397\nsamples = 11\nvalue = [3, 8]", fillcolor="#399de59f"] ;
945 -> 946 ;
947 [label="cap_shape <= 2.5\ngini = 0.32\nsamples = 5\nvalue = [1, 4]", fillcolor="#399de5bf"] ;
946 -> 947 ;
948 [label="stalk_color_below_ring <= 4.0\ngini = 0.5\nsamples = 2\nvalue = [1, 1]", fillcolor="#e5813900"] ;
947 -> 948 ;
949 [label="gini = 0.0\nsamples = 1\nvalue = [0, 1]", fillcolor="#399de5ff"] ;
948 -> 949 ;
950 [label="gini = 0.0\nsamples = 1\nvalue = [1, 0]", fillcolor="#e58139ff"] ;
948 -> 950 ;
951 [label="gini = 0.0\nsamples = 3\nvalue = [0, 3]", fillcolor="#399de5ff"] ;
947 -> 951 ;
952 [label="cap_shape <= 2.5\ngini = 0.444\nsamples = 6\nvalue = [2, 4]", fillcolor="#399de57f"] ;
946 -> 952 ;
953 [label="gini = 0.0\nsamples = 2\nvalue = [0, 2]", fillcolor="#399de5ff"] ;
952 -> 953 ;
954 [label="cap_color <= 1.5\ngini = 0.5\nsamples = 4\nvalue = [2, 2]", fillcolor="#e5813900"] ;
952 -> 954 ;
955 [label="stalk_color_below_ring <= 4.0\ngini = 0.5\nsamples = 2\nvalue = [1, 1]", fillcolor="#e5813900"] ;
954 -> 955 ;
956 [label="gini = 0.0\nsamples = 1\nvalue = [1, 0]", fillcolor="#e58139ff"] ;
955 -> 956 ;
